digraph Tree {
node [shape=box, style="filled, rounded", color="black", fontname=helvetica] ;
edge [fontname=helvetica] ;
0 [label="followers_count <= 12.5\ngini = 0.45\nsamples = 100.0%\nvalue = [0.35, 0.65]\nclass = genuine", fillcolor="#a2d1f3"] ;
1 [label="friends_count <= 88.5\ngini = 0.03\nsamples = 39.6%\nvalue = [0.01, 0.99]\nclass = genuine", fillcolor="#3c9ee5"] ;
0 -> 1 [labeldistance=2.5, labelangle=45, headlabel="True"] ;
2 [label="geo_enabled <= 0.5\ngini = 0.02\nsamples = 39.4%\nvalue = [0.01, 0.99]\nclass = genuine", fillcolor="#3b9ee5"] ;
1 -> 2 ;
3 [label="statuses_count <= 144.0\ngini = 0.02\nsamples = 39.3%\nvalue = [0.01, 0.99]\nclass = genuine", fillcolor="#3b9ee5"] ;
2 -> 3 ;
4 [label="default_profile <= 0.5\ngini = 0.01\nsamples = 38.6%\nvalue = [0.0, 1.0]\nclass = genuine", fillcolor="#3a9de5"] ;
3 -> 4 ;
5 [label="profile_background_tile <= 0.5\ngini = 0.0\nsamples = 38.3%\nvalue = [0.0, 1.0]\nclass = genuine", fillcolor="#399de5"] ;
4 -> 5 ;
6 [label="favourites_count <= 1.0\ngini = 0.04\nsamples = 2.8%\nvalue = [0.02, 0.98]\nclass = genuine", fillcolor="#3d9fe6"] ;
5 -> 6 ;
7 [label="gini = 0.0\nsamples = 2.8%\nvalue = [0.0, 1.0]\nclass = genuine", fillcolor="#399de5"] ;
6 -> 7 ;
8 [label="gini = 0.0\nsamples = 0.0%\nvalue = [1.0, 0.0]\nclass = bot", fillcolor="#e58139"] ;
6 -> 8 ;
9 [label="friends_count <= 7.5\ngini = 0.0\nsamples = 35.4%\nvalue = [0.0, 1.0]\nclass = genuine", fillcolor="#399de5"] ;
5 -> 9 ;
10 [label="favourites_count <= 103.0\ngini = 0.05\nsamples = 1.0%\nvalue = [0.03, 0.97]\nclass = genuine", fillcolor="#3ea0e6"] ;
9 -> 10 ;
11 [label="gini = 0.0\nsamples = 1.0%\nvalue = [0.0, 1.0]\nclass = genuine", fillcolor="#399de5"] ;
10 -> 11 ;
12 [label="gini = 0.0\nsamples = 0.0%\nvalue = [1.0, 0.0]\nclass = bot", fillcolor="#e58139"] ;
10 -> 12 ;
13 [label="gini = 0.0\nsamples = 34.4%\nvalue = [0.0, 1.0]\nclass = genuine", fillcolor="#399de5"] ;
9 -> 13 ;
14 [label="favourites_count <= 9.5\ngini = 0.32\nsamples = 0.4%\nvalue = [0.2, 0.8]\nclass = genuine", fillcolor="#6ab6ec"] ;
4 -> 14 ;
15 [label="followers_count <= 0.5\ngini = 0.11\nsamples = 0.3%\nvalue = [0.06, 0.94]\nclass = genuine", fillcolor="#45a3e7"] ;
14 -> 15 ;
16 [label="gini = 0.0\nsamples = 0.2%\nvalue = [0.0, 1.0]\nclass = genuine", fillcolor="#399de5"] ;
15 -> 16 ;
17 [label="statuses_count <= 24.0\ngini = 0.22\nsamples = 0.1%\nvalue = [0.12, 0.88]\nclass = genuine", fillcolor="#55abe9"] ;
15 -> 17 ;
18 [label="gini = 0.0\nsamples = 0.0%\nvalue = [1.0, 0.0]\nclass = bot", fillcolor="#e58139"] ;
17 -> 18 ;
19 [label="gini = 0.0\nsamples = 0.1%\nvalue = [0.0, 1.0]\nclass = genuine", fillcolor="#399de5"] ;
17 -> 19 ;
20 [label="gini = 0.0\nsamples = 0.1%\nvalue = [1.0, 0.0]\nclass = bot", fillcolor="#e58139"] ;
14 -> 20 ;
21 [label="statuses_count <= 187.5\ngini = 0.38\nsamples = 0.7%\nvalue = [0.26, 0.74]\nclass = genuine", fillcolor="#7dbfee"] ;
3 -> 21 ;
22 [label="statuses_count <= 164.5\ngini = 0.5\nsamples = 0.2%\nvalue = [0.47, 0.53]\nclass = genuine", fillcolor="#e6f3fc"] ;
21 -> 22 ;
23 [label="followers_count <= 2.0\ngini = 0.44\nsamples = 0.2%\nvalue = [0.33, 0.67]\nclass = genuine", fillcolor="#9ccef2"] ;
22 -> 23 ;
24 [label="gini = 0.0\nsamples = 0.1%\nvalue = [0.0, 1.0]\nclass = genuine", fillcolor="#399de5"] ;
23 -> 24 ;
25 [label="gini = 0.0\nsamples = 0.0%\nvalue = [1.0, 0.0]\nclass = bot", fillcolor="#e58139"] ;
23 -> 25 ;
26 [label="gini = 0.0\nsamples = 0.0%\nvalue = [1.0, 0.0]\nclass = bot", fillcolor="#e58139"] ;
22 -> 26 ;
27 [label="profile_background_tile <= 0.5\ngini = 0.26\nsamples = 0.4%\nvalue = [0.16, 0.84]\nclass = genuine", fillcolor="#5eafea"] ;
21 -> 27 ;
28 [label="statuses_count <= 678.5\ngini = 0.13\nsamples = 0.4%\nvalue = [0.07, 0.93]\nclass = genuine", fillcolor="#48a4e7"] ;
27 -> 28 ;
29 [label="favourites_count <= 0.5\ngini = 0.41\nsamples = 0.1%\nvalue = [0.29, 0.71]\nclass = genuine", fillcolor="#88c4ef"] ;
28 -> 29 ;
30 [label="statuses_count <= 320.0\ngini = 0.28\nsamples = 0.1%\nvalue = [0.17, 0.83]\nclass = genuine", fillcolor="#61b1ea"] ;
29 -> 30 ;
31 [label="gini = 0.0\nsamples = 0.0%\nvalue = [0.0, 1.0]\nclass = genuine", fillcolor="#399de5"] ;
30 -> 31 ;
32 [label="default_profile <= 0.5\ngini = 0.5\nsamples = 0.0%\nvalue = [0.5, 0.5]\nclass = bot", fillcolor="#ffffff"] ;
30 -> 32 ;
33 [label="gini = 0.0\nsamples = 0.0%\nvalue = [0.0, 1.0]\nclass = genuine", fillcolor="#399de5"] ;
32 -> 33 ;
34 [label="gini = 0.0\nsamples = 0.0%\nvalue = [1.0, 0.0]\nclass = bot", fillcolor="#e58139"] ;
32 -> 34 ;
35 [label="gini = 0.0\nsamples = 0.0%\nvalue = [1.0, 0.0]\nclass = bot", fillcolor="#e58139"] ;
29 -> 35 ;
36 [label="gini = 0.0\nsamples = 0.3%\nvalue = [0.0, 1.0]\nclass = genuine", fillcolor="#399de5"] ;
28 -> 36 ;
37 [label="gini = 0.0\nsamples = 0.0%\nvalue = [1.0, 0.0]\nclass = bot", fillcolor="#e58139"] ;
27 -> 37 ;
38 [label="default_profile <= 0.5\ngini = 0.18\nsamples = 0.2%\nvalue = [0.9, 0.1]\nclass = bot", fillcolor="#e88f4f"] ;
2 -> 38 ;
39 [label="gini = 0.0\nsamples = 0.1%\nvalue = [1.0, 0.0]\nclass = bot", fillcolor="#e58139"] ;
38 -> 39 ;
40 [label="followers_count <= 7.0\ngini = 0.32\nsamples = 0.1%\nvalue = [0.8, 0.2]\nclass = bot", fillcolor="#eca06a"] ;
38 -> 40 ;
41 [label="friends_count <= 18.5\ngini = 0.5\nsamples = 0.0%\nvalue = [0.5, 0.5]\nclass = bot", fillcolor="#ffffff"] ;
40 -> 41 ;
42 [label="gini = 0.0\nsamples = 0.0%\nvalue = [1.0, 0.0]\nclass = bot", fillcolor="#e58139"] ;
41 -> 42 ;
43 [label="gini = 0.0\nsamples = 0.0%\nvalue = [0.0, 1.0]\nclass = genuine", fillcolor="#399de5"] ;
41 -> 43 ;
44 [label="gini = 0.0\nsamples = 0.1%\nvalue = [1.0, 0.0]\nclass = bot", fillcolor="#e58139"] ;
40 -> 44 ;
45 [label="followers_count <= 8.0\ngini = 0.32\nsamples = 0.1%\nvalue = [0.8, 0.2]\nclass = bot", fillcolor="#eca06a"] ;
1 -> 45 ;
46 [label="gini = 0.0\nsamples = 0.0%\nvalue = [1.0, 0.0]\nclass = bot", fillcolor="#e58139"] ;
45 -> 46 ;
47 [label="profile_background_tile <= 0.5\ngini = 0.44\nsamples = 0.1%\nvalue = [0.67, 0.33]\nclass = bot", fillcolor="#f2c09c"] ;
45 -> 47 ;
48 [label="followers_count <= 9.5\ngini = 0.32\nsamples = 0.1%\nvalue = [0.8, 0.2]\nclass = bot", fillcolor="#eca06a"] ;
47 -> 48 ;
49 [label="gini = 0.0\nsamples = 0.0%\nvalue = [0.0, 1.0]\nclass = genuine", fillcolor="#399de5"] ;
48 -> 49 ;
50 [label="gini = 0.0\nsamples = 0.0%\nvalue = [1.0, 0.0]\nclass = bot", fillcolor="#e58139"] ;
48 -> 50 ;
51 [label="gini = 0.0\nsamples = 0.0%\nvalue = [0.0, 1.0]\nclass = genuine", fillcolor="#399de5"] ;
47 -> 51 ;
52 [label="listed_count <= 2.5\ngini = 0.49\nsamples = 60.4%\nvalue = [0.57, 0.43]\nclass = bot", fillcolor="#f9e1d0"] ;
0 -> 52 [labeldistance=2.5, labelangle=-45, headlabel="False"] ;
53 [label="statuses_count <= 309.5\ngini = 0.42\nsamples = 25.3%\nvalue = [0.7, 0.3]\nclass = bot", fillcolor="#f0b78e"] ;
52 -> 53 ;
54 [label="listed_count <= 1.5\ngini = 0.4\nsamples = 7.1%\nvalue = [0.28, 0.72]\nclass = genuine", fillcolor="#86c3ef"] ;
53 -> 54 ;
55 [label="favourites_count <= 13.0\ngini = 0.43\nsamples = 6.1%\nvalue = [0.31, 0.69]\nclass = genuine", fillcolor="#92c9f1"] ;
54 -> 55 ;
56 [label="statuses_count <= 4.5\ngini = 0.1\nsamples = 4.6%\nvalue = [0.06, 0.94]\nclass = genuine", fillcolor="#45a3e7"] ;
55 -> 56 ;
57 [label="gini = 0.0\nsamples = 1.2%\nvalue = [0.0, 1.0]\nclass = genuine", fillcolor="#399de5"] ;
56 -> 57 ;
58 [label="favourites_count <= 0.5\ngini = 0.14\nsamples = 3.3%\nvalue = [0.07, 0.93]\nclass = genuine", fillcolor="#49a5e7"] ;
56 -> 58 ;
59 [label="listed_count <= 0.5\ngini = 0.03\nsamples = 2.7%\nvalue = [0.01, 0.99]\nclass = genuine", fillcolor="#3c9ee5"] ;
58 -> 59 ;
60 [label="statuses_count <= 5.5\ngini = 0.02\nsamples = 2.2%\nvalue = [0.01, 0.99]\nclass = genuine", fillcolor="#3c9ee5"] ;
59 -> 60 ;
61 [label="gini = 0.0\nsamples = 0.0%\nvalue = [1.0, 0.0]\nclass = bot", fillcolor="#e58139"] ;
60 -> 61 ;
62 [label="gini = 0.0\nsamples = 2.2%\nvalue = [0.0, 1.0]\nclass = genuine", fillcolor="#399de5"] ;
60 -> 62 ;
63 [label="friends_count <= 168.0\ngini = 0.05\nsamples = 0.5%\nvalue = [0.02, 0.98]\nclass = genuine", fillcolor="#3e9fe6"] ;
59 -> 63 ;
64 [label="friends_count <= 88.5\ngini = 0.15\nsamples = 0.2%\nvalue = [0.08, 0.92]\nclass = genuine", fillcolor="#4ba6e7"] ;
63 -> 64 ;
65 [label="gini = 0.0\nsamples = 0.2%\nvalue = [0.0, 1.0]\nclass = genuine", fillcolor="#399de5"] ;
64 -> 65 ;
66 [label="gini = 0.0\nsamples = 0.0%\nvalue = [1.0, 0.0]\nclass = bot", fillcolor="#e58139"] ;
64 -> 66 ;
67 [label="gini = 0.0\nsamples = 0.4%\nvalue = [0.0, 1.0]\nclass = genuine", fillcolor="#399de5"] ;
63 -> 67 ;
68 [label="followers_count <= 72.0\ngini = 0.47\nsamples = 0.6%\nvalue = [0.38, 0.62]\nclass = genuine", fillcolor="#b0d8f5"] ;
58 -> 68 ;
69 [label="profile_background_tile <= 0.5\ngini = 0.3\nsamples = 0.2%\nvalue = [0.81, 0.19]\nclass = bot", fillcolor="#eb9e67"] ;
68 -> 69 ;
70 [label="gini = 0.0\nsamples = 0.2%\nvalue = [1.0, 0.0]\nclass = bot", fillcolor="#e58139"] ;
69 -> 70 ;
71 [label="geo_enabled <= 0.5\ngini = 0.38\nsamples = 0.0%\nvalue = [0.25, 0.75]\nclass = genuine", fillcolor="#7bbeee"] ;
69 -> 71 ;
72 [label="gini = 0.0\nsamples = 0.0%\nvalue = [0.0, 1.0]\nclass = genuine", fillcolor="#399de5"] ;
71 -> 72 ;
73 [label="gini = 0.0\nsamples = 0.0%\nvalue = [1.0, 0.0]\nclass = bot", fillcolor="#e58139"] ;
71 -> 73 ;
74 [label="friends_count <= 122.0\ngini = 0.15\nsamples = 0.3%\nvalue = [0.08, 0.92]\nclass = genuine", fillcolor="#4ba6e7"] ;
68 -> 74 ;
75 [label="statuses_count <= 199.0\ngini = 0.5\nsamples = 0.0%\nvalue = [0.5, 0.5]\nclass = bot", fillcolor="#ffffff"] ;
74 -> 75 ;
76 [label="gini = 0.0\nsamples = 0.0%\nvalue = [0.0, 1.0]\nclass = genuine", fillcolor="#399de5"] ;
75 -> 76 ;
77 [label="gini = 0.0\nsamples = 0.0%\nvalue = [1.0, 0.0]\nclass = bot", fillcolor="#e58139"] ;
75 -> 77 ;
78 [label="listed_count <= 0.5\ngini = 0.09\nsamples = 0.3%\nvalue = [0.05, 0.95]\nclass = genuine", fillcolor="#42a2e6"] ;
74 -> 78 ;
79 [label="geo_enabled <= 0.5\ngini = 0.1\nsamples = 0.2%\nvalue = [0.05, 0.95]\nclass = genuine", fillcolor="#44a2e6"] ;
78 -> 79 ;
80 [label="gini = 0.0\nsamples = 0.2%\nvalue = [0.0, 1.0]\nclass = genuine", fillcolor="#399de5"] ;
79 -> 80 ;
81 [label="gini = 0.0\nsamples = 0.0%\nvalue = [1.0, 0.0]\nclass = bot", fillcolor="#e58139"] ;
79 -> 81 ;
82 [label="gini = 0.0\nsamples = 0.0%\nvalue = [0.0, 1.0]\nclass = genuine", fillcolor="#399de5"] ;
78 -> 82 ;
83 [label="gini = 0.0\nsamples = 1.5%\nvalue = [1.0, 0.0]\nclass = bot", fillcolor="#e58139"] ;
55 -> 83 ;
84 [label="followers_count <= 96.5\ngini = 0.18\nsamples = 1.0%\nvalue = [0.1, 0.9]\nclass = genuine", fillcolor="#4fa8e8"] ;
54 -> 84 ;
85 [label="default_profile <= 0.5\ngini = 0.35\nsamples = 0.1%\nvalue = [0.78, 0.22]\nclass = bot", fillcolor="#eca572"] ;
84 -> 85 ;
86 [label="geo_enabled <= 0.5\ngini = 0.5\nsamples = 0.1%\nvalue = [0.5, 0.5]\nclass = bot", fillcolor="#ffffff"] ;
85 -> 86 ;
87 [label="followers_count <= 43.0\ngini = 0.44\nsamples = 0.0%\nvalue = [0.67, 0.33]\nclass = bot", fillcolor="#f2c09c"] ;
86 -> 87 ;
88 [label="gini = 0.0\nsamples = 0.0%\nvalue = [1.0, 0.0]\nclass = bot", fillcolor="#e58139"] ;
87 -> 88 ;
89 [label="gini = 0.0\nsamples = 0.0%\nvalue = [0.0, 1.0]\nclass = genuine", fillcolor="#399de5"] ;
87 -> 89 ;
90 [label="gini = 0.0\nsamples = 0.0%\nvalue = [0.0, 1.0]\nclass = genuine", fillcolor="#399de5"] ;
86 -> 90 ;
91 [label="gini = 0.0\nsamples = 0.0%\nvalue = [1.0, 0.0]\nclass = bot", fillcolor="#e58139"] ;
85 -> 91 ;
92 [label="gini = 0.0\nsamples = 0.9%\nvalue = [0.0, 1.0]\nclass = genuine", fillcolor="#399de5"] ;
84 -> 92 ;
93 [label="favourites_count <= 4.0\ngini = 0.23\nsamples = 18.2%\nvalue = [0.87, 0.13]\nclass = bot", fillcolor="#e99558"] ;
53 -> 93 ;
94 [label="geo_enabled <= 0.5\ngini = 0.04\nsamples = 2.5%\nvalue = [0.02, 0.98]\nclass = genuine", fillcolor="#3d9fe5"] ;
93 -> 94 ;
95 [label="followers_count <= 594.0\ngini = 0.01\nsamples = 2.5%\nvalue = [0.01, 0.99]\nclass = genuine", fillcolor="#3a9ee5"] ;
94 -> 95 ;
96 [label="profile_background_tile <= 0.5\ngini = 0.03\nsamples = 1.1%\nvalue = [0.02, 0.98]\nclass = genuine", fillcolor="#3c9fe5"] ;
95 -> 96 ;
97 [label="followers_count <= 576.0\ngini = 0.04\nsamples = 1.0%\nvalue = [0.02, 0.98]\nclass = genuine", fillcolor="#3d9fe5"] ;
96 -> 97 ;
98 [label="gini = 0.0\nsamples = 0.9%\nvalue = [0.0, 1.0]\nclass = genuine", fillcolor="#399de5"] ;
97 -> 98 ;
99 [label="gini = 0.0\nsamples = 0.0%\nvalue = [1.0, 0.0]\nclass = bot", fillcolor="#e58139"] ;
97 -> 99 ;
100 [label="gini = 0.0\nsamples = 0.1%\nvalue = [0.0, 1.0]\nclass = genuine", fillcolor="#399de5"] ;
96 -> 100 ;
101 [label="gini = 0.0\nsamples = 1.4%\nvalue = [0.0, 1.0]\nclass = genuine", fillcolor="#399de5"] ;
95 -> 101 ;
102 [label="gini = 0.0\nsamples = 0.0%\nvalue = [1.0, 0.0]\nclass = bot", fillcolor="#e58139"] ;
94 -> 102 ;
103 [label="listed_count <= 1.5\ngini = 0.02\nsamples = 15.7%\nvalue = [0.99, 0.01]\nclass = bot", fillcolor="#e5823b"] ;
93 -> 103 ;
104 [label="friends_count <= 629.0\ngini = 0.03\nsamples = 12.8%\nvalue = [0.99, 0.01]\nclass = bot", fillcolor="#e5833c"] ;
103 -> 104 ;
105 [label="favourites_count <= 9.5\ngini = 0.02\nsamples = 11.3%\nvalue = [0.99, 0.01]\nclass = bot", fillcolor="#e5823b"] ;
104 -> 105 ;
106 [label="geo_enabled <= 0.5\ngini = 0.22\nsamples = 0.2%\nvalue = [0.88, 0.12]\nclass = bot", fillcolor="#e99355"] ;
105 -> 106 ;
107 [label="gini = 0.0\nsamples = 0.1%\nvalue = [1.0, 0.0]\nclass = bot", fillcolor="#e58139"] ;
106 -> 107 ;
108 [label="favourites_count <= 8.0\ngini = 0.44\nsamples = 0.1%\nvalue = [0.67, 0.33]\nclass = bot", fillcolor="#f2c09c"] ;
106 -> 108 ;
109 [label="gini = 0.0\nsamples = 0.0%\nvalue = [1.0, 0.0]\nclass = bot", fillcolor="#e58139"] ;
108 -> 109 ;
110 [label="statuses_count <= 2710.0\ngini = 0.5\nsamples = 0.0%\nvalue = [0.5, 0.5]\nclass = bot", fillcolor="#ffffff"] ;
108 -> 110 ;
111 [label="gini = 0.0\nsamples = 0.0%\nvalue = [1.0, 0.0]\nclass = bot", fillcolor="#e58139"] ;
110 -> 111 ;
112 [label="gini = 0.0\nsamples = 0.0%\nvalue = [0.0, 1.0]\nclass = genuine", fillcolor="#399de5"] ;
110 -> 112 ;
113 [label="default_profile <= 0.5\ngini = 0.02\nsamples = 11.2%\nvalue = [0.99, 0.01]\nclass = bot", fillcolor="#e5823b"] ;
105 -> 113 ;
114 [label="statuses_count <= 2151.0\ngini = 0.03\nsamples = 6.8%\nvalue = [0.99, 0.01]\nclass = bot", fillcolor="#e5833c"] ;
113 -> 114 ;
115 [label="geo_enabled <= 0.5\ngini = 0.06\nsamples = 1.9%\nvalue = [0.97, 0.03]\nclass = bot", fillcolor="#e6853f"] ;
114 -> 115 ;
116 [label="listed_count <= 0.5\ngini = 0.11\nsamples = 0.8%\nvalue = [0.94, 0.06]\nclass = bot", fillcolor="#e78945"] ;
115 -> 116 ;
117 [label="statuses_count <= 1895.0\ngini = 0.17\nsamples = 0.5%\nvalue = [0.91, 0.09]\nclass = bot", fillcolor="#e88e4d"] ;
116 -> 117 ;
118 [label="protected <= 0.5\ngini = 0.06\nsamples = 0.5%\nvalue = [0.97, 0.03]\nclass = bot", fillcolor="#e68540"] ;
117 -> 118 ;
119 [label="statuses_count <= 889.0\ngini = 0.08\nsamples = 0.4%\nvalue = [0.96, 0.04]\nclass = bot", fillcolor="#e68742"] ;
118 -> 119 ;
120 [label="gini = 0.0\nsamples = 0.2%\nvalue = [1.0, 0.0]\nclass = bot", fillcolor="#e58139"] ;
119 -> 120 ;
121 [label="statuses_count <= 933.0\ngini = 0.2\nsamples = 0.2%\nvalue = [0.89, 0.11]\nclass = bot", fillcolor="#e89152"] ;
119 -> 121 ;
122 [label="gini = 0.0\nsamples = 0.0%\nvalue = [0.0, 1.0]\nclass = genuine", fillcolor="#399de5"] ;
121 -> 122 ;
123 [label="gini = 0.0\nsamples = 0.2%\nvalue = [1.0, 0.0]\nclass = bot", fillcolor="#e58139"] ;
121 -> 123 ;
124 [label="gini = 0.0\nsamples = 0.1%\nvalue = [1.0, 0.0]\nclass = bot", fillcolor="#e58139"] ;
118 -> 124 ;
125 [label="gini = 0.0\nsamples = 0.0%\nvalue = [0.0, 1.0]\nclass = genuine", fillcolor="#399de5"] ;
117 -> 125 ;
126 [label="gini = 0.0\nsamples = 0.3%\nvalue = [1.0, 0.0]\nclass = bot", fillcolor="#e58139"] ;
116 -> 126 ;
127 [label="friends_count <= 371.0\ngini = 0.02\nsamples = 1.1%\nvalue = [0.99, 0.01]\nclass = bot", fillcolor="#e5823b"] ;
115 -> 127 ;
128 [label="gini = 0.0\nsamples = 0.9%\nvalue = [1.0, 0.0]\nclass = bot", fillcolor="#e58139"] ;
127 -> 128 ;
129 [label="followers_count <= 89.5\ngini = 0.12\nsamples = 0.2%\nvalue = [0.93, 0.07]\nclass = bot", fillcolor="#e78a47"] ;
127 -> 129 ;
130 [label="followers_count <= 79.5\ngini = 0.44\nsamples = 0.1%\nvalue = [0.67, 0.33]\nclass = bot", fillcolor="#f2c09c"] ;
129 -> 130 ;
131 [label="gini = 0.0\nsamples = 0.0%\nvalue = [1.0, 0.0]\nclass = bot", fillcolor="#e58139"] ;
130 -> 131 ;
132 [label="gini = 0.0\nsamples = 0.0%\nvalue = [0.0, 1.0]\nclass = genuine", fillcolor="#399de5"] ;
130 -> 132 ;
133 [label="gini = 0.0\nsamples = 0.1%\nvalue = [1.0, 0.0]\nclass = bot", fillcolor="#e58139"] ;
129 -> 133 ;
134 [label="protected <= 0.5\ngini = 0.02\nsamples = 4.8%\nvalue = [0.99, 0.01]\nclass = bot", fillcolor="#e5823b"] ;
114 -> 134 ;
135 [label="friends_count <= 76.5\ngini = 0.02\nsamples = 4.5%\nvalue = [0.99, 0.01]\nclass = bot", fillcolor="#e5823b"] ;
134 -> 135 ;
136 [label="geo_enabled <= 0.5\ngini = 0.2\nsamples = 0.2%\nvalue = [0.89, 0.11]\nclass = bot", fillcolor="#e89152"] ;
135 -> 136 ;
137 [label="favourites_count <= 7295.5\ngini = 0.22\nsamples = 0.2%\nvalue = [0.88, 0.12]\nclass = bot", fillcolor="#e99355"] ;
136 -> 137 ;
138 [label="gini = 0.0\nsamples = 0.1%\nvalue = [1.0, 0.0]\nclass = bot", fillcolor="#e58139"] ;
137 -> 138 ;
139 [label="favourites_count <= 11465.5\ngini = 0.5\nsamples = 0.0%\nvalue = [0.5, 0.5]\nclass = bot", fillcolor="#ffffff"] ;
137 -> 139 ;
140 [label="gini = 0.0\nsamples = 0.0%\nvalue = [0.0, 1.0]\nclass = genuine", fillcolor="#399de5"] ;
139 -> 140 ;
141 [label="gini = 0.0\nsamples = 0.0%\nvalue = [1.0, 0.0]\nclass = bot", fillcolor="#e58139"] ;
139 -> 141 ;
142 [label="gini = 0.0\nsamples = 0.0%\nvalue = [1.0, 0.0]\nclass = bot", fillcolor="#e58139"] ;
136 -> 142 ;
143 [label="friends_count <= 297.0\ngini = 0.01\nsamples = 4.3%\nvalue = [0.99, 0.01]\nclass = bot", fillcolor="#e5823a"] ;
135 -> 143 ;
144 [label="statuses_count <= 16015.5\ngini = 0.02\nsamples = 2.3%\nvalue = [0.99, 0.01]\nclass = bot", fillcolor="#e5833b"] ;
143 -> 144 ;
145 [label="gini = 0.0\nsamples = 1.9%\nvalue = [1.0, 0.0]\nclass = bot", fillcolor="#e58139"] ;
144 -> 145 ;
146 [label="statuses_count <= 16226.5\ngini = 0.11\nsamples = 0.4%\nvalue = [0.94, 0.06]\nclass = bot", fillcolor="#e78946"] ;
144 -> 146 ;
147 [label="gini = 0.0\nsamples = 0.0%\nvalue = [0.0, 1.0]\nclass = genuine", fillcolor="#399de5"] ;
146 -> 147 ;
148 [label="friends_count <= 292.0\ngini = 0.06\nsamples = 0.4%\nvalue = [0.97, 0.03]\nclass = bot", fillcolor="#e6853f"] ;
146 -> 148 ;
149 [label="gini = 0.0\nsamples = 0.3%\nvalue = [1.0, 0.0]\nclass = bot", fillcolor="#e58139"] ;
148 -> 149 ;
150 [label="gini = 0.0\nsamples = 0.0%\nvalue = [0.0, 1.0]\nclass = genuine", fillcolor="#399de5"] ;
148 -> 150 ;
151 [label="gini = 0.0\nsamples = 2.1%\nvalue = [1.0, 0.0]\nclass = bot", fillcolor="#e58139"] ;
143 -> 151 ;
152 [label="gini = 0.0\nsamples = 0.3%\nvalue = [1.0, 0.0]\nclass = bot", fillcolor="#e58139"] ;
134 -> 152 ;
153 [label="gini = 0.0\nsamples = 4.4%\nvalue = [1.0, 0.0]\nclass = bot", fillcolor="#e58139"] ;
113 -> 153 ;
154 [label="friends_count <= 631.0\ngini = 0.08\nsamples = 1.4%\nvalue = [0.96, 0.04]\nclass = bot", fillcolor="#e68642"] ;
104 -> 154 ;
155 [label="gini = 0.0\nsamples = 0.0%\nvalue = [0.0, 1.0]\nclass = genuine", fillcolor="#399de5"] ;
154 -> 155 ;
156 [label="profile_background_tile <= 0.5\ngini = 0.02\nsamples = 1.4%\nvalue = [0.99, 0.01]\nclass = bot", fillcolor="#e5823b"] ;
154 -> 156 ;
157 [label="protected <= 0.5\ngini = 0.04\nsamples = 0.8%\nvalue = [0.98, 0.02]\nclass = bot", fillcolor="#e6833d"] ;
156 -> 157 ;
158 [label="friends_count <= 1141.5\ngini = 0.04\nsamples = 0.8%\nvalue = [0.98, 0.02]\nclass = bot", fillcolor="#e6843d"] ;
157 -> 158 ;
159 [label="gini = 0.0\nsamples = 0.6%\nvalue = [1.0, 0.0]\nclass = bot", fillcolor="#e58139"] ;
158 -> 159 ;
160 [label="followers_count <= 337.0\ngini = 0.17\nsamples = 0.2%\nvalue = [0.91, 0.09]\nclass = bot", fillcolor="#e88e4d"] ;
158 -> 160 ;
161 [label="statuses_count <= 2352.5\ngini = 0.44\nsamples = 0.0%\nvalue = [0.67, 0.33]\nclass = bot", fillcolor="#f2c09c"] ;
160 -> 161 ;
162 [label="gini = 0.0\nsamples = 0.0%\nvalue = [1.0, 0.0]\nclass = bot", fillcolor="#e58139"] ;
161 -> 162 ;
163 [label="gini = 0.0\nsamples = 0.0%\nvalue = [0.0, 1.0]\nclass = genuine", fillcolor="#399de5"] ;
161 -> 163 ;
164 [label="gini = 0.0\nsamples = 0.2%\nvalue = [1.0, 0.0]\nclass = bot", fillcolor="#e58139"] ;
160 -> 164 ;
165 [label="gini = 0.0\nsamples = 0.0%\nvalue = [1.0, 0.0]\nclass = bot", fillcolor="#e58139"] ;
157 -> 165 ;
166 [label="gini = 0.0\nsamples = 0.6%\nvalue = [1.0, 0.0]\nclass = bot", fillcolor="#e58139"] ;
156 -> 166 ;
167 [label="default_profile <= 0.5\ngini = 0.01\nsamples = 2.9%\nvalue = [1.0, 0.0]\nclass = bot", fillcolor="#e5823a"] ;
103 -> 167 ;
168 [label="gini = 0.0\nsamples = 2.3%\nvalue = [1.0, 0.0]\nclass = bot", fillcolor="#e58139"] ;
167 -> 168 ;
169 [label="statuses_count <= 12620.5\ngini = 0.04\nsamples = 0.6%\nvalue = [0.98, 0.02]\nclass = bot", fillcolor="#e6843d"] ;
167 -> 169 ;
170 [label="gini = 0.0\nsamples = 0.5%\nvalue = [1.0, 0.0]\nclass = bot", fillcolor="#e58139"] ;
169 -> 170 ;
171 [label="friends_count <= 1337.0\ngini = 0.22\nsamples = 0.1%\nvalue = [0.88, 0.12]\nclass = bot", fillcolor="#e99355"] ;
169 -> 171 ;
172 [label="gini = 0.0\nsamples = 0.1%\nvalue = [1.0, 0.0]\nclass = bot", fillcolor="#e58139"] ;
171 -> 172 ;
173 [label="gini = 0.0\nsamples = 0.0%\nvalue = [0.0, 1.0]\nclass = genuine", fillcolor="#399de5"] ;
171 -> 173 ;
174 [label="friends_count <= 2986.5\ngini = 0.5\nsamples = 35.1%\nvalue = [0.47, 0.53]\nclass = genuine", fillcolor="#e6f3fc"] ;
52 -> 174 ;
175 [label="favourites_count <= 23.5\ngini = 0.5\nsamples = 31.7%\nvalue = [0.5, 0.5]\nclass = bot", fillcolor="#fffffe"] ;
174 -> 175 ;
176 [label="favourites_count <= 2.5\ngini = 0.09\nsamples = 16.3%\nvalue = [0.05, 0.95]\nclass = genuine", fillcolor="#43a2e6"] ;
175 -> 176 ;
177 [label="friends_count <= 19.5\ngini = 0.03\nsamples = 14.5%\nvalue = [0.02, 0.98]\nclass = genuine", fillcolor="#3c9fe5"] ;
176 -> 177 ;
178 [label="followers_count <= 78.5\ngini = 0.47\nsamples = 0.2%\nvalue = [0.38, 0.62]\nclass = genuine", fillcolor="#b5daf5"] ;
177 -> 178 ;
179 [label="gini = 0.0\nsamples = 0.1%\nvalue = [0.0, 1.0]\nclass = genuine", fillcolor="#399de5"] ;
178 -> 179 ;
180 [label="friends_count <= 5.0\ngini = 0.47\nsamples = 0.1%\nvalue = [0.62, 0.38]\nclass = bot", fillcolor="#f5cdb0"] ;
178 -> 180 ;
181 [label="gini = 0.0\nsamples = 0.0%\nvalue = [0.0, 1.0]\nclass = genuine", fillcolor="#399de5"] ;
180 -> 181 ;
182 [label="gini = 0.0\nsamples = 0.0%\nvalue = [1.0, 0.0]\nclass = bot", fillcolor="#e58139"] ;
180 -> 182 ;
183 [label="followers_count <= 101.5\ngini = 0.02\nsamples = 14.3%\nvalue = [0.01, 0.99]\nclass = genuine", fillcolor="#3b9ee5"] ;
177 -> 183 ;
184 [label="default_profile_image <= 0.5\ngini = 0.18\nsamples = 0.9%\nvalue = [0.1, 0.9]\nclass = genuine", fillcolor="#4fa8e8"] ;
183 -> 184 ;
185 [label="followers_count <= 95.5\ngini = 0.16\nsamples = 0.9%\nvalue = [0.09, 0.91]\nclass = genuine", fillcolor="#4ca6e7"] ;
184 -> 185 ;
186 [label="statuses_count <= 554.5\ngini = 0.13\nsamples = 0.9%\nvalue = [0.07, 0.93]\nclass = genuine", fillcolor="#48a5e7"] ;
185 -> 186 ;
187 [label="statuses_count <= 248.0\ngini = 0.36\nsamples = 0.1%\nvalue = [0.23, 0.77]\nclass = genuine", fillcolor="#74baed"] ;
186 -> 187 ;
188 [label="gini = 0.0\nsamples = 0.1%\nvalue = [0.0, 1.0]\nclass = genuine", fillcolor="#399de5"] ;
187 -> 188 ;
189 [label="gini = 0.0\nsamples = 0.0%\nvalue = [1.0, 0.0]\nclass = bot", fillcolor="#e58139"] ;
187 -> 189 ;
190 [label="default_profile <= 0.5\ngini = 0.07\nsamples = 0.7%\nvalue = [0.04, 0.96]\nclass = genuine", fillcolor="#40a1e6"] ;
186 -> 190 ;
191 [label="gini = 0.0\nsamples = 0.5%\nvalue = [0.0, 1.0]\nclass = genuine", fillcolor="#399de5"] ;
190 -> 191 ;
192 [label="followers_count <= 68.5\ngini = 0.22\nsamples = 0.2%\nvalue = [0.12, 0.88]\nclass = genuine", fillcolor="#55abe9"] ;
190 -> 192 ;
193 [label="gini = 0.0\nsamples = 0.2%\nvalue = [0.0, 1.0]\nclass = genuine", fillcolor="#399de5"] ;
192 -> 193 ;
194 [label="gini = 0.0\nsamples = 0.0%\nvalue = [1.0, 0.0]\nclass = bot", fillcolor="#e58139"] ;
192 -> 194 ;
195 [label="gini = 0.0\nsamples = 0.0%\nvalue = [1.0, 0.0]\nclass = bot", fillcolor="#e58139"] ;
185 -> 195 ;
196 [label="gini = 0.0\nsamples = 0.0%\nvalue = [1.0, 0.0]\nclass = bot", fillcolor="#e58139"] ;
184 -> 196 ;
197 [label="statuses_count <= 184248.5\ngini = 0.01\nsamples = 13.4%\nvalue = [0.0, 1.0]\nclass = genuine", fillcolor="#3a9de5"] ;
183 -> 197 ;
198 [label="statuses_count <= 1976.5\ngini = 0.0\nsamples = 13.4%\nvalue = [0.0, 1.0]\nclass = genuine", fillcolor="#399de5"] ;
197 -> 198 ;
199 [label="gini = 0.0\nsamples = 9.9%\nvalue = [0.0, 1.0]\nclass = genuine", fillcolor="#399de5"] ;
198 -> 199 ;
200 [label="followers_count <= 1488.0\ngini = 0.02\nsamples = 3.4%\nvalue = [0.01, 0.99]\nclass = genuine", fillcolor="#3b9ee5"] ;
198 -> 200 ;
201 [label="gini = 0.0\nsamples = 3.2%\nvalue = [0.0, 1.0]\nclass = genuine", fillcolor="#399de5"] ;
200 -> 201 ;
202 [label="friends_count <= 1108.0\ngini = 0.22\nsamples = 0.2%\nvalue = [0.12, 0.88]\nclass = genuine", fillcolor="#55abe9"] ;
200 -> 202 ;
203 [label="listed_count <= 9.5\ngini = 0.44\nsamples = 0.0%\nvalue = [0.67, 0.33]\nclass = bot", fillcolor="#f2c09c"] ;
202 -> 203 ;
204 [label="gini = 0.0\nsamples = 0.0%\nvalue = [0.0, 1.0]\nclass = genuine", fillcolor="#399de5"] ;
203 -> 204 ;
205 [label="gini = 0.0\nsamples = 0.0%\nvalue = [1.0, 0.0]\nclass = bot", fillcolor="#e58139"] ;
203 -> 205 ;
206 [label="gini = 0.0\nsamples = 0.2%\nvalue = [0.0, 1.0]\nclass = genuine", fillcolor="#399de5"] ;
202 -> 206 ;
207 [label="gini = 0.0\nsamples = 0.0%\nvalue = [1.0, 0.0]\nclass = bot", fillcolor="#e58139"] ;
197 -> 207 ;
208 [label="profile_background_tile <= 0.5\ngini = 0.42\nsamples = 1.8%\nvalue = [0.3, 0.7]\nclass = genuine", fillcolor="#8ec7f0"] ;
176 -> 208 ;
209 [label="listed_count <= 26.5\ngini = 0.38\nsamples = 1.0%\nvalue = [0.25, 0.75]\nclass = genuine", fillcolor="#7cbeee"] ;
208 -> 209 ;
210 [label="favourites_count <= 7.5\ngini = 0.45\nsamples = 0.7%\nvalue = [0.34, 0.66]\nclass = genuine", fillcolor="#9fcff2"] ;
209 -> 210 ;
211 [label="statuses_count <= 2262.5\ngini = 0.26\nsamples = 0.4%\nvalue = [0.15, 0.85]\nclass = genuine", fillcolor="#5caeea"] ;
210 -> 211 ;
212 [label="followers_count <= 47.0\ngini = 0.44\nsamples = 0.1%\nvalue = [0.67, 0.33]\nclass = bot", fillcolor="#f2c09c"] ;
211 -> 212 ;
213 [label="gini = 0.0\nsamples = 0.0%\nvalue = [0.0, 1.0]\nclass = genuine", fillcolor="#399de5"] ;
212 -> 213 ;
214 [label="gini = 0.0\nsamples = 0.1%\nvalue = [1.0, 0.0]\nclass = bot", fillcolor="#e58139"] ;
212 -> 214 ;
215 [label="friends_count <= 22.5\ngini = 0.07\nsamples = 0.3%\nvalue = [0.04, 0.96]\nclass = genuine", fillcolor="#41a1e6"] ;
211 -> 215 ;
216 [label="friends_count <= 18.5\ngini = 0.38\nsamples = 0.1%\nvalue = [0.25, 0.75]\nclass = genuine", fillcolor="#7bbeee"] ;
215 -> 216 ;
217 [label="gini = 0.0\nsamples = 0.0%\nvalue = [0.0, 1.0]\nclass = genuine", fillcolor="#399de5"] ;
216 -> 217 ;
218 [label="gini = 0.0\nsamples = 0.0%\nvalue = [1.0, 0.0]\nclass = bot", fillcolor="#e58139"] ;
216 -> 218 ;
219 [label="gini = 0.0\nsamples = 0.2%\nvalue = [0.0, 1.0]\nclass = genuine", fillcolor="#399de5"] ;
215 -> 219 ;
220 [label="listed_count <= 3.5\ngini = 0.45\nsamples = 0.3%\nvalue = [0.65, 0.35]\nclass = bot", fillcolor="#f3c5a4"] ;
210 -> 220 ;
221 [label="gini = 0.0\nsamples = 0.0%\nvalue = [0.0, 1.0]\nclass = genuine", fillcolor="#399de5"] ;
220 -> 221 ;
222 [label="listed_count <= 18.5\ngini = 0.4\nsamples = 0.2%\nvalue = [0.72, 0.28]\nclass = bot", fillcolor="#efb185"] ;
220 -> 222 ;
223 [label="friends_count <= 140.5\ngini = 0.44\nsamples = 0.2%\nvalue = [0.67, 0.33]\nclass = bot", fillcolor="#f2c09c"] ;
222 -> 223 ;
224 [label="gini = 0.0\nsamples = 0.1%\nvalue = [0.0, 1.0]\nclass = genuine", fillcolor="#399de5"] ;
223 -> 224 ;
225 [label="gini = 0.0\nsamples = 0.1%\nvalue = [1.0, 0.0]\nclass = bot", fillcolor="#e58139"] ;
223 -> 225 ;
226 [label="gini = 0.0\nsamples = 0.0%\nvalue = [1.0, 0.0]\nclass = bot", fillcolor="#e58139"] ;
222 -> 226 ;
227 [label="listed_count <= 286.0\ngini = 0.09\nsamples = 0.3%\nvalue = [0.05, 0.95]\nclass = genuine", fillcolor="#42a2e6"] ;
209 -> 227 ;
228 [label="gini = 0.0\nsamples = 0.3%\nvalue = [0.0, 1.0]\nclass = genuine", fillcolor="#399de5"] ;
227 -> 228 ;
229 [label="gini = 0.0\nsamples = 0.0%\nvalue = [1.0, 0.0]\nclass = bot", fillcolor="#e58139"] ;
227 -> 229 ;
230 [label="statuses_count <= 10619.0\ngini = 0.46\nsamples = 0.8%\nvalue = [0.36, 0.64]\nclass = genuine", fillcolor="#aad5f4"] ;
208 -> 230 ;
231 [label="geo_enabled <= 0.5\ngini = 0.5\nsamples = 0.5%\nvalue = [0.53, 0.47]\nclass = bot", fillcolor="#fcf1e9"] ;
230 -> 231 ;
232 [label="statuses_count <= 9727.5\ngini = 0.49\nsamples = 0.3%\nvalue = [0.43, 0.57]\nclass = genuine", fillcolor="#d1e8f9"] ;
231 -> 232 ;
233 [label="statuses_count <= 1506.0\ngini = 0.43\nsamples = 0.3%\nvalue = [0.32, 0.68]\nclass = genuine", fillcolor="#94caf1"] ;
232 -> 233 ;
234 [label="listed_count <= 6.5\ngini = 0.41\nsamples = 0.1%\nvalue = [0.71, 0.29]\nclass = bot", fillcolor="#efb388"] ;
233 -> 234 ;
235 [label="gini = 0.0\nsamples = 0.0%\nvalue = [1.0, 0.0]\nclass = bot", fillcolor="#e58139"] ;
234 -> 235 ;
236 [label="statuses_count <= 945.5\ngini = 0.5\nsamples = 0.0%\nvalue = [0.5, 0.5]\nclass = bot", fillcolor="#ffffff"] ;
234 -> 236 ;
237 [label="gini = 0.0\nsamples = 0.0%\nvalue = [0.0, 1.0]\nclass = genuine", fillcolor="#399de5"] ;
236 -> 237 ;
238 [label="gini = 0.0\nsamples = 0.0%\nvalue = [1.0, 0.0]\nclass = bot", fillcolor="#e58139"] ;
236 -> 238 ;
239 [label="statuses_count <= 4439.0\ngini = 0.15\nsamples = 0.2%\nvalue = [0.08, 0.92]\nclass = genuine", fillcolor="#4ba6e7"] ;
233 -> 239 ;
240 [label="gini = 0.0\nsamples = 0.1%\nvalue = [0.0, 1.0]\nclass = genuine", fillcolor="#399de5"] ;
239 -> 240 ;
241 [label="statuses_count <= 4801.5\ngini = 0.44\nsamples = 0.1%\nvalue = [0.33, 0.67]\nclass = genuine", fillcolor="#9ccef2"] ;
239 -> 241 ;
242 [label="gini = 0.0\nsamples = 0.0%\nvalue = [1.0, 0.0]\nclass = bot", fillcolor="#e58139"] ;
241 -> 242 ;
243 [label="gini = 0.0\nsamples = 0.0%\nvalue = [0.0, 1.0]\nclass = genuine", fillcolor="#399de5"] ;
241 -> 243 ;
244 [label="gini = 0.0\nsamples = 0.0%\nvalue = [1.0, 0.0]\nclass = bot", fillcolor="#e58139"] ;
232 -> 244 ;
245 [label="followers_count <= 1209.0\ngini = 0.4\nsamples = 0.2%\nvalue = [0.73, 0.27]\nclass = bot", fillcolor="#efb083"] ;
231 -> 245 ;
246 [label="gini = 0.0\nsamples = 0.1%\nvalue = [1.0, 0.0]\nclass = bot", fillcolor="#e58139"] ;
245 -> 246 ;
247 [label="friends_count <= 1099.5\ngini = 0.5\nsamples = 0.0%\nvalue = [0.5, 0.5]\nclass = bot", fillcolor="#ffffff"] ;
245 -> 247 ;
248 [label="gini = 0.0\nsamples = 0.0%\nvalue = [1.0, 0.0]\nclass = bot", fillcolor="#e58139"] ;
247 -> 248 ;
249 [label="gini = 0.0\nsamples = 0.0%\nvalue = [0.0, 1.0]\nclass = genuine", fillcolor="#399de5"] ;
247 -> 249 ;
250 [label="friends_count <= 261.5\ngini = 0.17\nsamples = 0.3%\nvalue = [0.1, 0.9]\nclass = genuine", fillcolor="#4ea7e8"] ;
230 -> 250 ;
251 [label="gini = 0.0\nsamples = 0.2%\nvalue = [0.0, 1.0]\nclass = genuine", fillcolor="#399de5"] ;
250 -> 251 ;
252 [label="favourites_count <= 10.5\ngini = 0.44\nsamples = 0.1%\nvalue = [0.33, 0.67]\nclass = genuine", fillcolor="#9ccef2"] ;
250 -> 252 ;
253 [label="gini = 0.0\nsamples = 0.0%\nvalue = [1.0, 0.0]\nclass = bot", fillcolor="#e58139"] ;
252 -> 253 ;
254 [label="gini = 0.0\nsamples = 0.0%\nvalue = [0.0, 1.0]\nclass = genuine", fillcolor="#399de5"] ;
252 -> 254 ;
255 [label="default_profile <= 0.5\ngini = 0.06\nsamples = 15.4%\nvalue = [0.97, 0.03]\nclass = bot", fillcolor="#e6853f"] ;
175 -> 255 ;
256 [label="followers_count <= 47.5\ngini = 0.06\nsamples = 12.8%\nvalue = [0.97, 0.03]\nclass = bot", fillcolor="#e68540"] ;
255 -> 256 ;
257 [label="followers_count <= 33.5\ngini = 0.44\nsamples = 0.1%\nvalue = [0.33, 0.67]\nclass = genuine", fillcolor="#9ccef2"] ;
256 -> 257 ;
258 [label="friends_count <= 71.0\ngini = 0.38\nsamples = 0.1%\nvalue = [0.75, 0.25]\nclass = bot", fillcolor="#eeab7b"] ;
257 -> 258 ;
259 [label="followers_count <= 23.0\ngini = 0.5\nsamples = 0.0%\nvalue = [0.5, 0.5]\nclass = bot", fillcolor="#ffffff"] ;
258 -> 259 ;
260 [label="gini = 0.0\nsamples = 0.0%\nvalue = [0.0, 1.0]\nclass = genuine", fillcolor="#399de5"] ;
259 -> 260 ;
261 [label="gini = 0.0\nsamples = 0.0%\nvalue = [1.0, 0.0]\nclass = bot", fillcolor="#e58139"] ;
259 -> 261 ;
262 [label="gini = 0.0\nsamples = 0.0%\nvalue = [1.0, 0.0]\nclass = bot", fillcolor="#e58139"] ;
258 -> 262 ;
263 [label="gini = 0.0\nsamples = 0.0%\nvalue = [0.0, 1.0]\nclass = genuine", fillcolor="#399de5"] ;
257 -> 263 ;
264 [label="friends_count <= 134.0\ngini = 0.05\nsamples = 12.7%\nvalue = [0.97, 0.03]\nclass = bot", fillcolor="#e6843e"] ;
256 -> 264 ;
265 [label="listed_count <= 8.5\ngini = 0.16\nsamples = 1.3%\nvalue = [0.91, 0.09]\nclass = bot", fillcolor="#e78d4c"] ;
264 -> 265 ;
266 [label="gini = 0.0\nsamples = 0.7%\nvalue = [1.0, 0.0]\nclass = bot", fillcolor="#e58139"] ;
265 -> 266 ;
267 [label="favourites_count <= 56.5\ngini = 0.34\nsamples = 0.6%\nvalue = [0.78, 0.22]\nclass = bot", fillcolor="#eca470"] ;
265 -> 267 ;
268 [label="gini = 0.0\nsamples = 0.1%\nvalue = [0.0, 1.0]\nclass = genuine", fillcolor="#399de5"] ;
267 -> 268 ;
269 [label="listed_count <= 9.5\ngini = 0.06\nsamples = 0.5%\nvalue = [0.97, 0.03]\nclass = bot", fillcolor="#e68540"] ;
267 -> 269 ;
270 [label="favourites_count <= 15838.5\ngini = 0.38\nsamples = 0.1%\nvalue = [0.75, 0.25]\nclass = bot", fillcolor="#eeab7b"] ;
269 -> 270 ;
271 [label="followers_count <= 287.5\ngini = 0.5\nsamples = 0.0%\nvalue = [0.5, 0.5]\nclass = bot", fillcolor="#ffffff"] ;
270 -> 271 ;
272 [label="gini = 0.0\nsamples = 0.0%\nvalue = [0.0, 1.0]\nclass = genuine", fillcolor="#399de5"] ;
271 -> 272 ;
273 [label="gini = 0.0\nsamples = 0.0%\nvalue = [1.0, 0.0]\nclass = bot", fillcolor="#e58139"] ;
271 -> 273 ;
274 [label="gini = 0.0\nsamples = 0.0%\nvalue = [1.0, 0.0]\nclass = bot", fillcolor="#e58139"] ;
270 -> 274 ;
275 [label="gini = 0.0\nsamples = 0.4%\nvalue = [1.0, 0.0]\nclass = bot", fillcolor="#e58139"] ;
269 -> 275 ;
276 [label="statuses_count <= 20187.0\ngini = 0.04\nsamples = 11.4%\nvalue = [0.98, 0.02]\nclass = bot", fillcolor="#e6843d"] ;
264 -> 276 ;
277 [label="followers_count <= 1755.0\ngini = 0.05\nsamples = 6.2%\nvalue = [0.97, 0.03]\nclass = bot", fillcolor="#e6853f"] ;
276 -> 277 ;
278 [label="listed_count <= 7.5\ngini = 0.03\nsamples = 5.5%\nvalue = [0.98, 0.02]\nclass = bot", fillcolor="#e5833c"] ;
277 -> 278 ;
279 [label="gini = 0.0\nsamples = 3.3%\nvalue = [1.0, 0.0]\nclass = bot", fillcolor="#e58139"] ;
278 -> 279 ;
280 [label="followers_count <= 111.5\ngini = 0.07\nsamples = 2.2%\nvalue = [0.96, 0.04]\nclass = bot", fillcolor="#e68641"] ;
278 -> 280 ;
281 [label="friends_count <= 236.0\ngini = 0.5\nsamples = 0.0%\nvalue = [0.5, 0.5]\nclass = bot", fillcolor="#ffffff"] ;
280 -> 281 ;
282 [label="gini = 0.0\nsamples = 0.0%\nvalue = [1.0, 0.0]\nclass = bot", fillcolor="#e58139"] ;
281 -> 282 ;
283 [label="gini = 0.0\nsamples = 0.0%\nvalue = [0.0, 1.0]\nclass = genuine", fillcolor="#399de5"] ;
281 -> 283 ;
284 [label="geo_enabled <= 0.5\ngini = 0.05\nsamples = 2.2%\nvalue = [0.97, 0.03]\nclass = bot", fillcolor="#e6843e"] ;
280 -> 284 ;
285 [label="gini = 0.0\nsamples = 0.6%\nvalue = [1.0, 0.0]\nclass = bot", fillcolor="#e58139"] ;
284 -> 285 ;
286 [label="profile_background_tile <= 0.5\ngini = 0.07\nsamples = 1.6%\nvalue = [0.96, 0.04]\nclass = bot", fillcolor="#e68640"] ;
284 -> 286 ;
287 [label="followers_count <= 409.5\ngini = 0.07\nsamples = 0.9%\nvalue = [0.97, 0.03]\nclass = bot", fillcolor="#e68540"] ;
286 -> 287 ;
288 [label="followers_count <= 391.0\ngini = 0.18\nsamples = 0.3%\nvalue = [0.9, 0.1]\nclass = bot", fillcolor="#e88f4f"] ;
287 -> 288 ;
289 [label="gini = 0.0\nsamples = 0.3%\nvalue = [1.0, 0.0]\nclass = bot", fillcolor="#e58139"] ;
288 -> 289 ;
290 [label="gini = 0.0\nsamples = 0.0%\nvalue = [0.0, 1.0]\nclass = genuine", fillcolor="#399de5"] ;
288 -> 290 ;
291 [label="gini = 0.0\nsamples = 0.6%\nvalue = [1.0, 0.0]\nclass = bot", fillcolor="#e58139"] ;
287 -> 291 ;
292 [label="verified <= 0.5\ngini = 0.07\nsamples = 0.7%\nvalue = [0.96, 0.04]\nclass = bot", fillcolor="#e68640"] ;
286 -> 292 ;
293 [label="friends_count <= 995.0\ngini = 0.07\nsamples = 0.7%\nvalue = [0.96, 0.04]\nclass = bot", fillcolor="#e68641"] ;
292 -> 293 ;
294 [label="gini = 0.0\nsamples = 0.4%\nvalue = [1.0, 0.0]\nclass = bot", fillcolor="#e58139"] ;
293 -> 294 ;
295 [label="friends_count <= 1002.5\ngini = 0.15\nsamples = 0.3%\nvalue = [0.92, 0.08]\nclass = bot", fillcolor="#e78c4b"] ;
293 -> 295 ;
296 [label="gini = 0.0\nsamples = 0.0%\nvalue = [0.0, 1.0]\nclass = genuine", fillcolor="#399de5"] ;
295 -> 296 ;
297 [label="gini = 0.0\nsamples = 0.3%\nvalue = [1.0, 0.0]\nclass = bot", fillcolor="#e58139"] ;
295 -> 297 ;
298 [label="gini = 0.0\nsamples = 0.0%\nvalue = [1.0, 0.0]\nclass = bot", fillcolor="#e58139"] ;
292 -> 298 ;
299 [label="profile_background_tile <= 0.5\ngini = 0.22\nsamples = 0.7%\nvalue = [0.88, 0.12]\nclass = bot", fillcolor="#e99355"] ;
277 -> 299 ;
300 [label="friends_count <= 1418.0\ngini = 0.36\nsamples = 0.3%\nvalue = [0.76, 0.24]\nclass = bot", fillcolor="#eda877"] ;
299 -> 300 ;
301 [label="favourites_count <= 243.5\ngini = 0.18\nsamples = 0.2%\nvalue = [0.9, 0.1]\nclass = bot", fillcolor="#e88f4f"] ;
300 -> 301 ;
302 [label="gini = 0.0\nsamples = 0.0%\nvalue = [0.0, 1.0]\nclass = genuine", fillcolor="#399de5"] ;
301 -> 302 ;
303 [label="gini = 0.0\nsamples = 0.2%\nvalue = [1.0, 0.0]\nclass = bot", fillcolor="#e58139"] ;
301 -> 303 ;
304 [label="statuses_count <= 18000.0\ngini = 0.46\nsamples = 0.1%\nvalue = [0.64, 0.36]\nclass = bot", fillcolor="#f4c9aa"] ;
300 -> 304 ;
305 [label="listed_count <= 51.0\ngini = 0.22\nsamples = 0.1%\nvalue = [0.88, 0.12]\nclass = bot", fillcolor="#e99355"] ;
304 -> 305 ;
306 [label="listed_count <= 37.0\ngini = 0.44\nsamples = 0.1%\nvalue = [0.67, 0.33]\nclass = bot", fillcolor="#f2c09c"] ;
305 -> 306 ;
307 [label="gini = 0.0\nsamples = 0.0%\nvalue = [1.0, 0.0]\nclass = bot", fillcolor="#e58139"] ;
306 -> 307 ;
308 [label="gini = 0.0\nsamples = 0.0%\nvalue = [0.0, 1.0]\nclass = genuine", fillcolor="#399de5"] ;
306 -> 308 ;
309 [label="gini = 0.0\nsamples = 0.0%\nvalue = [1.0, 0.0]\nclass = bot", fillcolor="#e58139"] ;
305 -> 309 ;
310 [label="gini = 0.0\nsamples = 0.0%\nvalue = [0.0, 1.0]\nclass = genuine", fillcolor="#399de5"] ;
304 -> 310 ;
311 [label="favourites_count <= 57.0\ngini = 0.07\nsamples = 0.4%\nvalue = [0.96, 0.04]\nclass = bot", fillcolor="#e68641"] ;
299 -> 311 ;
312 [label="followers_count <= 2716.0\ngini = 0.44\nsamples = 0.0%\nvalue = [0.67, 0.33]\nclass = bot", fillcolor="#f2c09c"] ;
311 -> 312 ;
313 [label="gini = 0.0\nsamples = 0.0%\nvalue = [0.0, 1.0]\nclass = genuine", fillcolor="#399de5"] ;
312 -> 313 ;
314 [label="gini = 0.0\nsamples = 0.0%\nvalue = [1.0, 0.0]\nclass = bot", fillcolor="#e58139"] ;
312 -> 314 ;
315 [label="gini = 0.0\nsamples = 0.3%\nvalue = [1.0, 0.0]\nclass = bot", fillcolor="#e58139"] ;
311 -> 315 ;
316 [label="followers_count <= 409.5\ngini = 0.02\nsamples = 5.2%\nvalue = [0.99, 0.01]\nclass = bot", fillcolor="#e5823b"] ;
276 -> 316 ;
317 [label="geo_enabled <= 0.5\ngini = 0.09\nsamples = 0.7%\nvalue = [0.95, 0.05]\nclass = bot", fillcolor="#e68843"] ;
316 -> 317 ;
318 [label="listed_count <= 34.5\ngini = 0.21\nsamples = 0.3%\nvalue = [0.88, 0.12]\nclass = bot", fillcolor="#e89253"] ;
317 -> 318 ;
319 [label="gini = 0.0\nsamples = 0.2%\nvalue = [1.0, 0.0]\nclass = bot", fillcolor="#e58139"] ;
318 -> 319 ;
320 [label="gini = 0.0\nsamples = 0.0%\nvalue = [0.0, 1.0]\nclass = genuine", fillcolor="#399de5"] ;
318 -> 320 ;
321 [label="gini = 0.0\nsamples = 0.4%\nvalue = [1.0, 0.0]\nclass = bot", fillcolor="#e58139"] ;
317 -> 321 ;
322 [label="protected <= 0.5\ngini = 0.01\nsamples = 4.5%\nvalue = [1.0, 0.0]\nclass = bot", fillcolor="#e5813a"] ;
316 -> 322 ;
323 [label="statuses_count <= 103447.0\ngini = 0.01\nsamples = 4.4%\nvalue = [1.0, 0.0]\nclass = bot", fillcolor="#e5813a"] ;
322 -> 323 ;
324 [label="gini = 0.0\nsamples = 3.8%\nvalue = [1.0, 0.0]\nclass = bot", fillcolor="#e58139"] ;
323 -> 324 ;
325 [label="followers_count <= 3184.5\ngini = 0.05\nsamples = 0.6%\nvalue = [0.97, 0.03]\nclass = bot", fillcolor="#e6853f"] ;
323 -> 325 ;
326 [label="gini = 0.0\nsamples = 0.4%\nvalue = [1.0, 0.0]\nclass = bot", fillcolor="#e58139"] ;
325 -> 326 ;
327 [label="favourites_count <= 33006.0\ngini = 0.2\nsamples = 0.2%\nvalue = [0.89, 0.11]\nclass = bot", fillcolor="#e89152"] ;
325 -> 327 ;
328 [label="gini = 0.0\nsamples = 0.1%\nvalue = [1.0, 0.0]\nclass = bot", fillcolor="#e58139"] ;
327 -> 328 ;
329 [label="gini = 0.0\nsamples = 0.0%\nvalue = [0.0, 1.0]\nclass = genuine", fillcolor="#399de5"] ;
327 -> 329 ;
330 [label="gini = 0.0\nsamples = 0.1%\nvalue = [1.0, 0.0]\nclass = bot", fillcolor="#e58139"] ;
322 -> 330 ;
331 [label="statuses_count <= 11484.5\ngini = 0.04\nsamples = 2.6%\nvalue = [0.98, 0.02]\nclass = bot", fillcolor="#e6843d"] ;
255 -> 331 ;
332 [label="friends_count <= 11.5\ngini = 0.06\nsamples = 1.7%\nvalue = [0.97, 0.03]\nclass = bot", fillcolor="#e6853f"] ;
331 -> 332 ;
333 [label="gini = 0.0\nsamples = 0.0%\nvalue = [0.0, 1.0]\nclass = genuine", fillcolor="#399de5"] ;
332 -> 333 ;
334 [label="default_profile_image <= 0.5\ngini = 0.05\nsamples = 1.7%\nvalue = [0.98, 0.02]\nclass = bot", fillcolor="#e6843e"] ;
332 -> 334 ;
335 [label="statuses_count <= 10660.0\ngini = 0.05\nsamples = 1.6%\nvalue = [0.98, 0.02]\nclass = bot", fillcolor="#e6843e"] ;
334 -> 335 ;
336 [label="favourites_count <= 1728.0\ngini = 0.03\nsamples = 1.6%\nvalue = [0.98, 0.02]\nclass = bot", fillcolor="#e5833c"] ;
335 -> 336 ;
337 [label="favourites_count <= 1697.5\ngini = 0.05\nsamples = 1.1%\nvalue = [0.98, 0.02]\nclass = bot", fillcolor="#e6843e"] ;
336 -> 337 ;
338 [label="followers_count <= 105.5\ngini = 0.02\nsamples = 1.1%\nvalue = [0.99, 0.01]\nclass = bot", fillcolor="#e5833b"] ;
337 -> 338 ;
339 [label="statuses_count <= 931.5\ngini = 0.17\nsamples = 0.1%\nvalue = [0.91, 0.09]\nclass = bot", fillcolor="#e88e4d"] ;
338 -> 339 ;
340 [label="gini = 0.0\nsamples = 0.1%\nvalue = [1.0, 0.0]\nclass = bot", fillcolor="#e58139"] ;
339 -> 340 ;
341 [label="followers_count <= 87.0\ngini = 0.28\nsamples = 0.1%\nvalue = [0.83, 0.17]\nclass = bot", fillcolor="#ea9a61"] ;
339 -> 341 ;
342 [label="gini = 0.0\nsamples = 0.0%\nvalue = [1.0, 0.0]\nclass = bot", fillcolor="#e58139"] ;
341 -> 342 ;
343 [label="gini = 0.0\nsamples = 0.0%\nvalue = [0.0, 1.0]\nclass = genuine", fillcolor="#399de5"] ;
341 -> 343 ;
344 [label="gini = 0.0\nsamples = 0.9%\nvalue = [1.0, 0.0]\nclass = bot", fillcolor="#e58139"] ;
338 -> 344 ;
345 [label="gini = 0.0\nsamples = 0.0%\nvalue = [0.0, 1.0]\nclass = genuine", fillcolor="#399de5"] ;
337 -> 345 ;
346 [label="gini = 0.0\nsamples = 0.5%\nvalue = [1.0, 0.0]\nclass = bot", fillcolor="#e58139"] ;
336 -> 346 ;
347 [label="gini = 0.0\nsamples = 0.0%\nvalue = [0.0, 1.0]\nclass = genuine", fillcolor="#399de5"] ;
335 -> 347 ;
348 [label="gini = 0.0\nsamples = 0.0%\nvalue = [1.0, 0.0]\nclass = bot", fillcolor="#e58139"] ;
334 -> 348 ;
349 [label="gini = 0.0\nsamples = 0.9%\nvalue = [1.0, 0.0]\nclass = bot", fillcolor="#e58139"] ;
331 -> 349 ;
350 [label="listed_count <= 77.0\ngini = 0.26\nsamples = 3.4%\nvalue = [0.16, 0.84]\nclass = genuine", fillcolor="#5eafea"] ;
174 -> 350 ;
351 [label="followers_count <= 10173.5\ngini = 0.09\nsamples = 2.9%\nvalue = [0.05, 0.95]\nclass = genuine", fillcolor="#43a2e6"] ;
350 -> 351 ;
352 [label="geo_enabled <= 0.5\ngini = 0.07\nsamples = 2.7%\nvalue = [0.04, 0.96]\nclass = genuine", fillcolor="#40a1e6"] ;
351 -> 352 ;
353 [label="followers_count <= 4821.0\ngini = 0.03\nsamples = 2.7%\nvalue = [0.02, 0.98]\nclass = genuine", fillcolor="#3c9fe5"] ;
352 -> 353 ;
354 [label="gini = 0.0\nsamples = 1.2%\nvalue = [0.0, 1.0]\nclass = genuine", fillcolor="#399de5"] ;
353 -> 354 ;
355 [label="favourites_count <= 160.0\ngini = 0.06\nsamples = 1.4%\nvalue = [0.03, 0.97]\nclass = genuine", fillcolor="#3fa0e6"] ;
353 -> 355 ;
356 [label="gini = 0.0\nsamples = 1.4%\nvalue = [0.0, 1.0]\nclass = genuine", fillcolor="#399de5"] ;
355 -> 356 ;
357 [label="default_profile <= 0.5\ngini = 0.38\nsamples = 0.1%\nvalue = [0.75, 0.25]\nclass = bot", fillcolor="#eeab7b"] ;
355 -> 357 ;
358 [label="gini = 0.0\nsamples = 0.1%\nvalue = [1.0, 0.0]\nclass = bot", fillcolor="#e58139"] ;
357 -> 358 ;
359 [label="gini = 0.0\nsamples = 0.0%\nvalue = [0.0, 1.0]\nclass = genuine", fillcolor="#399de5"] ;
357 -> 359 ;
360 [label="gini = 0.0\nsamples = 0.1%\nvalue = [1.0, 0.0]\nclass = bot", fillcolor="#e58139"] ;
352 -> 360 ;
361 [label="statuses_count <= 23998.5\ngini = 0.47\nsamples = 0.1%\nvalue = [0.38, 0.62]\nclass = genuine", fillcolor="#b0d8f5"] ;
351 -> 361 ;
362 [label="gini = 0.0\nsamples = 0.0%\nvalue = [1.0, 0.0]\nclass = bot", fillcolor="#e58139"] ;
361 -> 362 ;
363 [label="favourites_count <= 11503.0\ngini = 0.28\nsamples = 0.1%\nvalue = [0.17, 0.83]\nclass = genuine", fillcolor="#61b1ea"] ;
361 -> 363 ;
364 [label="gini = 0.0\nsamples = 0.0%\nvalue = [0.0, 1.0]\nclass = genuine", fillcolor="#399de5"] ;
363 -> 364 ;
365 [label="gini = 0.0\nsamples = 0.0%\nvalue = [1.0, 0.0]\nclass = bot", fillcolor="#e58139"] ;
363 -> 365 ;
366 [label="statuses_count <= 4635.5\ngini = 0.37\nsamples = 0.5%\nvalue = [0.76, 0.24]\nclass = bot", fillcolor="#edaa79"] ;
350 -> 366 ;
367 [label="gini = 0.0\nsamples = 0.1%\nvalue = [0.0, 1.0]\nclass = genuine", fillcolor="#399de5"] ;
366 -> 367 ;
368 [label="geo_enabled <= 0.5\ngini = 0.22\nsamples = 0.5%\nvalue = [0.88, 0.12]\nclass = bot", fillcolor="#e99355"] ;
366 -> 368 ;
369 [label="favourites_count <= 51.5\ngini = 0.22\nsamples = 0.2%\nvalue = [0.88, 0.12]\nclass = bot", fillcolor="#e99355"] ;
368 -> 369 ;
370 [label="gini = 0.0\nsamples = 0.0%\nvalue = [0.0, 1.0]\nclass = genuine", fillcolor="#399de5"] ;
369 -> 370 ;
371 [label="gini = 0.0\nsamples = 0.2%\nvalue = [1.0, 0.0]\nclass = bot", fillcolor="#e58139"] ;
369 -> 371 ;
372 [label="friends_count <= 14455.0\ngini = 0.22\nsamples = 0.2%\nvalue = [0.88, 0.12]\nclass = bot", fillcolor="#e99355"] ;
368 -> 372 ;
373 [label="gini = 0.0\nsamples = 0.2%\nvalue = [1.0, 0.0]\nclass = bot", fillcolor="#e58139"] ;
372 -> 373 ;
374 [label="friends_count <= 25692.0\ngini = 0.44\nsamples = 0.1%\nvalue = [0.33, 0.67]\nclass = genuine", fillcolor="#9ccef2"] ;
372 -> 374 ;
375 [label="gini = 0.0\nsamples = 0.0%\nvalue = [0.0, 1.0]\nclass = genuine", fillcolor="#399de5"] ;
374 -> 375 ;
376 [label="friends_count <= 123492.5\ngini = 0.5\nsamples = 0.0%\nvalue = [0.5, 0.5]\nclass = bot", fillcolor="#ffffff"] ;
374 -> 376 ;
377 [label="gini = 0.0\nsamples = 0.0%\nvalue = [1.0, 0.0]\nclass = bot", fillcolor="#e58139"] ;
376 -> 377 ;
378 [label="gini = 0.0\nsamples = 0.0%\nvalue = [0.0, 1.0]\nclass = genuine", fillcolor="#399de5"] ;
376 -> 378 ;
}