digraph Tree {
node [shape=box, style="filled, rounded", color="black", fontname=helvetica] ;
edge [fontname=helvetica] ;
0 [label="favourites_count <= 15.5\ngini = 0.45\nsamples = 100.0%\nvalue = [0.35, 0.65]\nclass = genuine", fillcolor="#a2d1f3"] ;
1 [label="default_profile <= 0.5\ngini = 0.04\nsamples = 66.3%\nvalue = [0.02, 0.98]\nclass = genuine", fillcolor="#3d9fe6"] ;
0 -> 1 [labeldistance=2.5, labelangle=45, headlabel="True"] ;
2 [label="listed_count <= 85.5\ngini = 0.03\nsamples = 61.5%\nvalue = [0.01, 0.99]\nclass = genuine", fillcolor="#3c9ee5"] ;
1 -> 2 ;
3 [label="favourites_count <= 3.5\ngini = 0.03\nsamples = 61.0%\nvalue = [0.01, 0.99]\nclass = genuine", fillcolor="#3c9ee5"] ;
2 -> 3 ;
4 [label="favourites_count <= 1.5\ngini = 0.01\nsamples = 59.6%\nvalue = [0.0, 1.0]\nclass = genuine", fillcolor="#3a9de5"] ;
3 -> 4 ;
5 [label="friends_count <= 34.5\ngini = 0.01\nsamples = 59.0%\nvalue = [0.0, 1.0]\nclass = genuine", fillcolor="#3a9de5"] ;
4 -> 5 ;
6 [label="profile_background_tile <= 0.5\ngini = 0.03\nsamples = 8.8%\nvalue = [0.01, 0.99]\nclass = genuine", fillcolor="#3c9ee5"] ;
5 -> 6 ;
7 [label="favourites_count <= 0.5\ngini = 0.05\nsamples = 3.5%\nvalue = [0.02, 0.98]\nclass = genuine", fillcolor="#3e9fe6"] ;
6 -> 7 ;
8 [label="followers_count <= 2.5\ngini = 0.03\nsamples = 3.4%\nvalue = [0.02, 0.98]\nclass = genuine", fillcolor="#3c9fe5"] ;
7 -> 8 ;
9 [label="gini = 0.0\nsamples = 2.7%\nvalue = [0.0, 1.0]\nclass = genuine", fillcolor="#399de5"] ;
8 -> 9 ;
10 [label="friends_count <= 33.5\ngini = 0.13\nsamples = 0.7%\nvalue = [0.07, 0.93]\nclass = genuine", fillcolor="#48a4e7"] ;
8 -> 10 ;
11 [label="followers_count <= 3.5\ngini = 0.04\nsamples = 0.6%\nvalue = [0.02, 0.98]\nclass = genuine", fillcolor="#3d9fe6"] ;
10 -> 11 ;
12 [label="statuses_count <= 141.0\ngini = 0.32\nsamples = 0.1%\nvalue = [0.2, 0.8]\nclass = genuine", fillcolor="#6ab6ec"] ;
11 -> 12 ;
13 [label="gini = 0.0\nsamples = 0.0%\nvalue = [0.0, 1.0]\nclass = genuine", fillcolor="#399de5"] ;
12 -> 13 ;
14 [label="gini = 0.0\nsamples = 0.0%\nvalue = [1.0, 0.0]\nclass = bot", fillcolor="#e58139"] ;
12 -> 14 ;
15 [label="gini = 0.0\nsamples = 0.6%\nvalue = [0.0, 1.0]\nclass = genuine", fillcolor="#399de5"] ;
11 -> 15 ;
16 [label="geo_enabled <= 0.5\ngini = 0.38\nsamples = 0.0%\nvalue = [0.75, 0.25]\nclass = bot", fillcolor="#eeab7b"] ;
10 -> 16 ;
17 [label="gini = 0.0\nsamples = 0.0%\nvalue = [0.0, 1.0]\nclass = genuine", fillcolor="#399de5"] ;
16 -> 17 ;
18 [label="gini = 0.0\nsamples = 0.0%\nvalue = [1.0, 0.0]\nclass = bot", fillcolor="#e58139"] ;
16 -> 18 ;
19 [label="listed_count <= 2.0\ngini = 0.5\nsamples = 0.1%\nvalue = [0.5, 0.5]\nclass = bot", fillcolor="#ffffff"] ;
7 -> 19 ;
20 [label="gini = 0.0\nsamples = 0.0%\nvalue = [1.0, 0.0]\nclass = bot", fillcolor="#e58139"] ;
19 -> 20 ;
21 [label="gini = 0.0\nsamples = 0.0%\nvalue = [0.0, 1.0]\nclass = genuine", fillcolor="#399de5"] ;
19 -> 21 ;
22 [label="followers_count <= 243.5\ngini = 0.01\nsamples = 5.3%\nvalue = [0.01, 0.99]\nclass = genuine", fillcolor="#3a9ee5"] ;
6 -> 22 ;
23 [label="gini = 0.0\nsamples = 5.3%\nvalue = [0.0, 1.0]\nclass = genuine", fillcolor="#399de5"] ;
22 -> 23 ;
24 [label="gini = 0.0\nsamples = 0.0%\nvalue = [1.0, 0.0]\nclass = bot", fillcolor="#e58139"] ;
22 -> 24 ;
25 [label="statuses_count <= 484.5\ngini = 0.0\nsamples = 50.2%\nvalue = [0.0, 1.0]\nclass = genuine", fillcolor="#399de5"] ;
5 -> 25 ;
26 [label="gini = 0.0\nsamples = 45.7%\nvalue = [0.0, 1.0]\nclass = genuine", fillcolor="#399de5"] ;
25 -> 26 ;
27 [label="followers_count <= 12.5\ngini = 0.03\nsamples = 4.5%\nvalue = [0.02, 0.98]\nclass = genuine", fillcolor="#3c9fe5"] ;
25 -> 27 ;
28 [label="gini = 0.0\nsamples = 0.0%\nvalue = [1.0, 0.0]\nclass = bot", fillcolor="#e58139"] ;
27 -> 28 ;
29 [label="listed_count <= 4.5\ngini = 0.03\nsamples = 4.5%\nvalue = [0.01, 0.99]\nclass = genuine", fillcolor="#3c9ee5"] ;
27 -> 29 ;
30 [label="gini = 0.0\nsamples = 2.2%\nvalue = [0.0, 1.0]\nclass = genuine", fillcolor="#399de5"] ;
29 -> 30 ;
31 [label="followers_count <= 60.5\ngini = 0.05\nsamples = 2.2%\nvalue = [0.03, 0.97]\nclass = genuine", fillcolor="#3ea0e6"] ;
29 -> 31 ;
32 [label="statuses_count <= 548.5\ngini = 0.32\nsamples = 0.1%\nvalue = [0.2, 0.8]\nclass = genuine", fillcolor="#6ab6ec"] ;
31 -> 32 ;
33 [label="gini = 0.0\nsamples = 0.0%\nvalue = [1.0, 0.0]\nclass = bot", fillcolor="#e58139"] ;
32 -> 33 ;
34 [label="gini = 0.0\nsamples = 0.1%\nvalue = [0.0, 1.0]\nclass = genuine", fillcolor="#399de5"] ;
32 -> 34 ;
35 [label="listed_count <= 14.5\ngini = 0.03\nsamples = 2.1%\nvalue = [0.01, 0.99]\nclass = genuine", fillcolor="#3c9ee5"] ;
31 -> 35 ;
36 [label="gini = 0.0\nsamples = 1.3%\nvalue = [0.0, 1.0]\nclass = genuine", fillcolor="#399de5"] ;
35 -> 36 ;
37 [label="listed_count <= 15.5\ngini = 0.08\nsamples = 0.8%\nvalue = [0.04, 0.96]\nclass = genuine", fillcolor="#41a1e6"] ;
35 -> 37 ;
38 [label="gini = 0.0\nsamples = 0.0%\nvalue = [1.0, 0.0]\nclass = bot", fillcolor="#e58139"] ;
37 -> 38 ;
39 [label="gini = 0.0\nsamples = 0.8%\nvalue = [0.0, 1.0]\nclass = genuine", fillcolor="#399de5"] ;
37 -> 39 ;
40 [label="favourites_count <= 2.5\ngini = 0.27\nsamples = 0.6%\nvalue = [0.16, 0.84]\nclass = genuine", fillcolor="#5eafea"] ;
4 -> 40 ;
41 [label="listed_count <= 4.5\ngini = 0.4\nsamples = 0.2%\nvalue = [0.27, 0.73]\nclass = genuine", fillcolor="#83c2ef"] ;
40 -> 41 ;
42 [label="gini = 0.0\nsamples = 0.0%\nvalue = [1.0, 0.0]\nclass = bot", fillcolor="#e58139"] ;
41 -> 42 ;
43 [label="gini = 0.0\nsamples = 0.2%\nvalue = [0.0, 1.0]\nclass = genuine", fillcolor="#399de5"] ;
41 -> 43 ;
44 [label="statuses_count <= 125.0\ngini = 0.2\nsamples = 0.4%\nvalue = [0.11, 0.89]\nclass = genuine", fillcolor="#52a9e8"] ;
40 -> 44 ;
45 [label="gini = 0.0\nsamples = 0.0%\nvalue = [1.0, 0.0]\nclass = bot", fillcolor="#e58139"] ;
44 -> 45 ;
46 [label="geo_enabled <= 0.5\ngini = 0.08\nsamples = 0.4%\nvalue = [0.04, 0.96]\nclass = genuine", fillcolor="#41a1e6"] ;
44 -> 46 ;
47 [label="gini = 0.0\nsamples = 0.4%\nvalue = [0.0, 1.0]\nclass = genuine", fillcolor="#399de5"] ;
46 -> 47 ;
48 [label="gini = 0.0\nsamples = 0.0%\nvalue = [1.0, 0.0]\nclass = bot", fillcolor="#e58139"] ;
46 -> 48 ;
49 [label="geo_enabled <= 0.5\ngini = 0.46\nsamples = 1.4%\nvalue = [0.36, 0.64]\nclass = genuine", fillcolor="#aad5f4"] ;
3 -> 49 ;
50 [label="statuses_count <= 3215.5\ngini = 0.38\nsamples = 1.1%\nvalue = [0.25, 0.75]\nclass = genuine", fillcolor="#7cbeee"] ;
49 -> 50 ;
51 [label="profile_background_tile <= 0.5\ngini = 0.5\nsamples = 0.4%\nvalue = [0.53, 0.47]\nclass = bot", fillcolor="#fcefe6"] ;
50 -> 51 ;
52 [label="friends_count <= 450.0\ngini = 0.5\nsamples = 0.1%\nvalue = [0.55, 0.45]\nclass = bot", fillcolor="#fbeade"] ;
51 -> 52 ;
53 [label="favourites_count <= 7.0\ngini = 0.38\nsamples = 0.1%\nvalue = [0.75, 0.25]\nclass = bot", fillcolor="#eeab7b"] ;
52 -> 53 ;
54 [label="statuses_count <= 457.5\ngini = 0.44\nsamples = 0.0%\nvalue = [0.33, 0.67]\nclass = genuine", fillcolor="#9ccef2"] ;
53 -> 54 ;
55 [label="gini = 0.0\nsamples = 0.0%\nvalue = [1.0, 0.0]\nclass = bot", fillcolor="#e58139"] ;
54 -> 55 ;
56 [label="gini = 0.0\nsamples = 0.0%\nvalue = [0.0, 1.0]\nclass = genuine", fillcolor="#399de5"] ;
54 -> 56 ;
57 [label="gini = 0.0\nsamples = 0.1%\nvalue = [1.0, 0.0]\nclass = bot", fillcolor="#e58139"] ;
53 -> 57 ;
58 [label="gini = 0.0\nsamples = 0.0%\nvalue = [0.0, 1.0]\nclass = genuine", fillcolor="#399de5"] ;
52 -> 58 ;
59 [label="friends_count <= 44.5\ngini = 0.5\nsamples = 0.2%\nvalue = [0.53, 0.47]\nclass = bot", fillcolor="#fcf2eb"] ;
51 -> 59 ;
60 [label="gini = 0.0\nsamples = 0.0%\nvalue = [1.0, 0.0]\nclass = bot", fillcolor="#e58139"] ;
59 -> 60 ;
61 [label="favourites_count <= 12.0\ngini = 0.48\nsamples = 0.2%\nvalue = [0.4, 0.6]\nclass = genuine", fillcolor="#bddef6"] ;
59 -> 61 ;
62 [label="friends_count <= 139.5\ngini = 0.46\nsamples = 0.2%\nvalue = [0.36, 0.64]\nclass = genuine", fillcolor="#a7d3f3"] ;
61 -> 62 ;
63 [label="gini = 0.0\nsamples = 0.0%\nvalue = [0.0, 1.0]\nclass = genuine", fillcolor="#399de5"] ;
62 -> 63 ;
64 [label="friends_count <= 285.5\ngini = 0.5\nsamples = 0.1%\nvalue = [0.5, 0.5]\nclass = bot", fillcolor="#ffffff"] ;
62 -> 64 ;
65 [label="gini = 0.0\nsamples = 0.0%\nvalue = [1.0, 0.0]\nclass = bot", fillcolor="#e58139"] ;
64 -> 65 ;
66 [label="friends_count <= 569.0\ngini = 0.41\nsamples = 0.1%\nvalue = [0.29, 0.71]\nclass = genuine", fillcolor="#88c4ef"] ;
64 -> 66 ;
67 [label="gini = 0.0\nsamples = 0.0%\nvalue = [0.0, 1.0]\nclass = genuine", fillcolor="#399de5"] ;
66 -> 67 ;
68 [label="statuses_count <= 945.5\ngini = 0.5\nsamples = 0.0%\nvalue = [0.5, 0.5]\nclass = bot", fillcolor="#ffffff"] ;
66 -> 68 ;
69 [label="gini = 0.0\nsamples = 0.0%\nvalue = [0.0, 1.0]\nclass = genuine", fillcolor="#399de5"] ;
68 -> 69 ;
70 [label="gini = 0.0\nsamples = 0.0%\nvalue = [1.0, 0.0]\nclass = bot", fillcolor="#e58139"] ;
68 -> 70 ;
71 [label="gini = 0.0\nsamples = 0.0%\nvalue = [1.0, 0.0]\nclass = bot", fillcolor="#e58139"] ;
61 -> 71 ;
72 [label="profile_background_tile <= 0.5\ngini = 0.15\nsamples = 0.7%\nvalue = [0.08, 0.92]\nclass = genuine", fillcolor="#4ba6e7"] ;
50 -> 72 ;
73 [label="gini = 0.0\nsamples = 0.3%\nvalue = [0.0, 1.0]\nclass = genuine", fillcolor="#399de5"] ;
72 -> 73 ;
74 [label="listed_count <= 3.0\ngini = 0.27\nsamples = 0.4%\nvalue = [0.16, 0.84]\nclass = genuine", fillcolor="#5fb0ea"] ;
72 -> 74 ;
75 [label="gini = 0.0\nsamples = 0.0%\nvalue = [1.0, 0.0]\nclass = bot", fillcolor="#e58139"] ;
74 -> 75 ;
76 [label="listed_count <= 26.0\ngini = 0.22\nsamples = 0.4%\nvalue = [0.12, 0.88]\nclass = genuine", fillcolor="#55abe9"] ;
74 -> 76 ;
77 [label="statuses_count <= 32040.5\ngini = 0.27\nsamples = 0.3%\nvalue = [0.16, 0.84]\nclass = genuine", fillcolor="#5eafea"] ;
76 -> 77 ;
78 [label="followers_count <= 619.5\ngini = 0.2\nsamples = 0.3%\nvalue = [0.11, 0.89]\nclass = genuine", fillcolor="#52a9e8"] ;
77 -> 78 ;
79 [label="gini = 0.0\nsamples = 0.3%\nvalue = [0.0, 1.0]\nclass = genuine", fillcolor="#399de5"] ;
78 -> 79 ;
80 [label="gini = 0.0\nsamples = 0.0%\nvalue = [1.0, 0.0]\nclass = bot", fillcolor="#e58139"] ;
78 -> 80 ;
81 [label="gini = 0.0\nsamples = 0.0%\nvalue = [1.0, 0.0]\nclass = bot", fillcolor="#e58139"] ;
77 -> 81 ;
82 [label="gini = 0.0\nsamples = 0.1%\nvalue = [0.0, 1.0]\nclass = genuine", fillcolor="#399de5"] ;
76 -> 82 ;
83 [label="followers_count <= 1209.0\ngini = 0.32\nsamples = 0.3%\nvalue = [0.8, 0.2]\nclass = bot", fillcolor="#eca06a"] ;
49 -> 83 ;
84 [label="statuses_count <= 4807.0\ngini = 0.11\nsamples = 0.3%\nvalue = [0.94, 0.06]\nclass = bot", fillcolor="#e78945"] ;
83 -> 84 ;
85 [label="gini = 0.0\nsamples = 0.2%\nvalue = [1.0, 0.0]\nclass = bot", fillcolor="#e58139"] ;
84 -> 85 ;
86 [label="listed_count <= 4.5\ngini = 0.5\nsamples = 0.0%\nvalue = [0.5, 0.5]\nclass = bot", fillcolor="#ffffff"] ;
84 -> 86 ;
87 [label="gini = 0.0\nsamples = 0.0%\nvalue = [0.0, 1.0]\nclass = genuine", fillcolor="#399de5"] ;
86 -> 87 ;
88 [label="gini = 0.0\nsamples = 0.0%\nvalue = [1.0, 0.0]\nclass = bot", fillcolor="#e58139"] ;
86 -> 88 ;
89 [label="gini = 0.0\nsamples = 0.0%\nvalue = [0.0, 1.0]\nclass = genuine", fillcolor="#399de5"] ;
83 -> 89 ;
90 [label="statuses_count <= 3617.0\ngini = 0.29\nsamples = 0.5%\nvalue = [0.18, 0.82]\nclass = genuine", fillcolor="#63b2eb"] ;
2 -> 90 ;
91 [label="gini = 0.0\nsamples = 0.4%\nvalue = [0.0, 1.0]\nclass = genuine", fillcolor="#399de5"] ;
90 -> 91 ;
92 [label="statuses_count <= 19538.5\ngini = 0.44\nsamples = 0.1%\nvalue = [0.67, 0.33]\nclass = bot", fillcolor="#f2c09c"] ;
90 -> 92 ;
93 [label="listed_count <= 98.0\ngini = 0.28\nsamples = 0.1%\nvalue = [0.83, 0.17]\nclass = bot", fillcolor="#ea9a61"] ;
92 -> 93 ;
94 [label="gini = 0.0\nsamples = 0.0%\nvalue = [1.0, 0.0]\nclass = bot", fillcolor="#e58139"] ;
93 -> 94 ;
95 [label="favourites_count <= 6.0\ngini = 0.5\nsamples = 0.0%\nvalue = [0.5, 0.5]\nclass = bot", fillcolor="#ffffff"] ;
93 -> 95 ;
96 [label="gini = 0.0\nsamples = 0.0%\nvalue = [0.0, 1.0]\nclass = genuine", fillcolor="#399de5"] ;
95 -> 96 ;
97 [label="gini = 0.0\nsamples = 0.0%\nvalue = [1.0, 0.0]\nclass = bot", fillcolor="#e58139"] ;
95 -> 97 ;
98 [label="favourites_count <= 10.5\ngini = 0.44\nsamples = 0.1%\nvalue = [0.33, 0.67]\nclass = genuine", fillcolor="#9ccef2"] ;
92 -> 98 ;
99 [label="gini = 0.0\nsamples = 0.0%\nvalue = [0.0, 1.0]\nclass = genuine", fillcolor="#399de5"] ;
98 -> 99 ;
100 [label="gini = 0.0\nsamples = 0.0%\nvalue = [1.0, 0.0]\nclass = bot", fillcolor="#e58139"] ;
98 -> 100 ;
101 [label="friends_count <= 319.0\ngini = 0.22\nsamples = 4.7%\nvalue = [0.12, 0.88]\nclass = genuine", fillcolor="#55abe9"] ;
1 -> 101 ;
102 [label="listed_count <= 11.0\ngini = 0.41\nsamples = 1.9%\nvalue = [0.29, 0.71]\nclass = genuine", fillcolor="#8ac5f0"] ;
101 -> 102 ;
103 [label="geo_enabled <= 0.5\ngini = 0.46\nsamples = 1.5%\nvalue = [0.36, 0.64]\nclass = genuine", fillcolor="#aad5f4"] ;
102 -> 103 ;
104 [label="friends_count <= 76.0\ngini = 0.39\nsamples = 1.2%\nvalue = [0.27, 0.73]\nclass = genuine", fillcolor="#82c1ef"] ;
103 -> 104 ;
105 [label="friends_count <= 8.5\ngini = 0.27\nsamples = 0.9%\nvalue = [0.16, 0.84]\nclass = genuine", fillcolor="#5eafea"] ;
104 -> 105 ;
106 [label="statuses_count <= 533.0\ngini = 0.07\nsamples = 0.3%\nvalue = [0.04, 0.96]\nclass = genuine", fillcolor="#41a1e6"] ;
105 -> 106 ;
107 [label="followers_count <= 3.0\ngini = 0.14\nsamples = 0.2%\nvalue = [0.08, 0.92]\nclass = genuine", fillcolor="#49a5e7"] ;
106 -> 107 ;
108 [label="gini = 0.0\nsamples = 0.2%\nvalue = [0.0, 1.0]\nclass = genuine", fillcolor="#399de5"] ;
107 -> 108 ;
109 [label="gini = 0.0\nsamples = 0.0%\nvalue = [1.0, 0.0]\nclass = bot", fillcolor="#e58139"] ;
107 -> 109 ;
110 [label="gini = 0.0\nsamples = 0.1%\nvalue = [0.0, 1.0]\nclass = genuine", fillcolor="#399de5"] ;
106 -> 110 ;
111 [label="statuses_count <= 24.0\ngini = 0.37\nsamples = 0.6%\nvalue = [0.24, 0.76]\nclass = genuine", fillcolor="#79bced"] ;
105 -> 111 ;
112 [label="gini = 0.0\nsamples = 0.1%\nvalue = [1.0, 0.0]\nclass = bot", fillcolor="#e58139"] ;
111 -> 112 ;
113 [label="statuses_count <= 64662.0\ngini = 0.26\nsamples = 0.5%\nvalue = [0.15, 0.85]\nclass = genuine", fillcolor="#5caeea"] ;
111 -> 113 ;
114 [label="followers_count <= 44.5\ngini = 0.13\nsamples = 0.5%\nvalue = [0.07, 0.93]\nclass = genuine", fillcolor="#48a4e7"] ;
113 -> 114 ;
115 [label="gini = 0.0\nsamples = 0.4%\nvalue = [0.0, 1.0]\nclass = genuine", fillcolor="#399de5"] ;
114 -> 115 ;
116 [label="statuses_count <= 101.0\ngini = 0.5\nsamples = 0.1%\nvalue = [0.5, 0.5]\nclass = bot", fillcolor="#ffffff"] ;
114 -> 116 ;
117 [label="gini = 0.0\nsamples = 0.0%\nvalue = [1.0, 0.0]\nclass = bot", fillcolor="#e58139"] ;
116 -> 117 ;
118 [label="followers_count <= 65.0\ngini = 0.44\nsamples = 0.1%\nvalue = [0.33, 0.67]\nclass = genuine", fillcolor="#9ccef2"] ;
116 -> 118 ;
119 [label="gini = 0.0\nsamples = 0.0%\nvalue = [1.0, 0.0]\nclass = bot", fillcolor="#e58139"] ;
118 -> 119 ;
120 [label="gini = 0.0\nsamples = 0.0%\nvalue = [0.0, 1.0]\nclass = genuine", fillcolor="#399de5"] ;
118 -> 120 ;
121 [label="followers_count <= 60.5\ngini = 0.38\nsamples = 0.0%\nvalue = [0.75, 0.25]\nclass = bot", fillcolor="#eeab7b"] ;
113 -> 121 ;
122 [label="gini = 0.0\nsamples = 0.0%\nvalue = [0.0, 1.0]\nclass = genuine", fillcolor="#399de5"] ;
121 -> 122 ;
123 [label="gini = 0.0\nsamples = 0.0%\nvalue = [1.0, 0.0]\nclass = bot", fillcolor="#e58139"] ;
121 -> 123 ;
124 [label="friends_count <= 114.5\ngini = 0.48\nsamples = 0.3%\nvalue = [0.59, 0.41]\nclass = bot", fillcolor="#f7d8c2"] ;
104 -> 124 ;
125 [label="gini = 0.0\nsamples = 0.1%\nvalue = [1.0, 0.0]\nclass = bot", fillcolor="#e58139"] ;
124 -> 125 ;
126 [label="friends_count <= 314.5\ngini = 0.46\nsamples = 0.2%\nvalue = [0.36, 0.64]\nclass = genuine", fillcolor="#a7d3f3"] ;
124 -> 126 ;
127 [label="friends_count <= 126.0\ngini = 0.38\nsamples = 0.2%\nvalue = [0.25, 0.75]\nclass = genuine", fillcolor="#7bbeee"] ;
126 -> 127 ;
128 [label="gini = 0.0\nsamples = 0.0%\nvalue = [0.0, 1.0]\nclass = genuine", fillcolor="#399de5"] ;
127 -> 128 ;
129 [label="friends_count <= 153.5\ngini = 0.44\nsamples = 0.2%\nvalue = [0.33, 0.67]\nclass = genuine", fillcolor="#9ccef2"] ;
127 -> 129 ;
130 [label="gini = 0.0\nsamples = 0.0%\nvalue = [1.0, 0.0]\nclass = bot", fillcolor="#e58139"] ;
129 -> 130 ;
131 [label="listed_count <= 4.5\ngini = 0.24\nsamples = 0.1%\nvalue = [0.14, 0.86]\nclass = genuine", fillcolor="#5aade9"] ;
129 -> 131 ;
132 [label="gini = 0.0\nsamples = 0.1%\nvalue = [0.0, 1.0]\nclass = genuine", fillcolor="#399de5"] ;
131 -> 132 ;
133 [label="gini = 0.0\nsamples = 0.0%\nvalue = [1.0, 0.0]\nclass = bot", fillcolor="#e58139"] ;
131 -> 133 ;
134 [label="gini = 0.0\nsamples = 0.0%\nvalue = [1.0, 0.0]\nclass = bot", fillcolor="#e58139"] ;
126 -> 134 ;
135 [label="default_profile_image <= 0.5\ngini = 0.29\nsamples = 0.3%\nvalue = [0.82, 0.18]\nclass = bot", fillcolor="#eb9c63"] ;
103 -> 135 ;
136 [label="gini = 0.0\nsamples = 0.2%\nvalue = [1.0, 0.0]\nclass = bot", fillcolor="#e58139"] ;
135 -> 136 ;
137 [label="listed_count <= 2.0\ngini = 0.38\nsamples = 0.1%\nvalue = [0.25, 0.75]\nclass = genuine", fillcolor="#7bbeee"] ;
135 -> 137 ;
138 [label="gini = 0.0\nsamples = 0.0%\nvalue = [0.0, 1.0]\nclass = genuine", fillcolor="#399de5"] ;
137 -> 138 ;
139 [label="gini = 0.0\nsamples = 0.0%\nvalue = [1.0, 0.0]\nclass = bot", fillcolor="#e58139"] ;
137 -> 139 ;
140 [label="gini = 0.0\nsamples = 0.3%\nvalue = [0.0, 1.0]\nclass = genuine", fillcolor="#399de5"] ;
102 -> 140 ;
141 [label="favourites_count <= 12.5\ngini = 0.03\nsamples = 2.9%\nvalue = [0.02, 0.98]\nclass = genuine", fillcolor="#3c9fe5"] ;
101 -> 141 ;
142 [label="followers_count <= 302.0\ngini = 0.02\nsamples = 2.8%\nvalue = [0.01, 0.99]\nclass = genuine", fillcolor="#3b9ee5"] ;
141 -> 142 ;
143 [label="favourites_count <= 8.0\ngini = 0.32\nsamples = 0.1%\nvalue = [0.2, 0.8]\nclass = genuine", fillcolor="#6ab6ec"] ;
142 -> 143 ;
144 [label="gini = 0.0\nsamples = 0.1%\nvalue = [0.0, 1.0]\nclass = genuine", fillcolor="#399de5"] ;
143 -> 144 ;
145 [label="gini = 0.0\nsamples = 0.0%\nvalue = [1.0, 0.0]\nclass = bot", fillcolor="#e58139"] ;
143 -> 145 ;
146 [label="favourites_count <= 0.5\ngini = 0.01\nsamples = 2.7%\nvalue = [0.01, 0.99]\nclass = genuine", fillcolor="#3a9ee5"] ;
142 -> 146 ;
147 [label="listed_count <= 0.5\ngini = 0.02\nsamples = 1.5%\nvalue = [0.01, 0.99]\nclass = genuine", fillcolor="#3b9ee5"] ;
146 -> 147 ;
148 [label="friends_count <= 815.5\ngini = 0.2\nsamples = 0.2%\nvalue = [0.11, 0.89]\nclass = genuine", fillcolor="#52a9e8"] ;
147 -> 148 ;
149 [label="statuses_count <= 9352.5\ngini = 0.38\nsamples = 0.1%\nvalue = [0.25, 0.75]\nclass = genuine", fillcolor="#7bbeee"] ;
148 -> 149 ;
150 [label="gini = 0.0\nsamples = 0.1%\nvalue = [0.0, 1.0]\nclass = genuine", fillcolor="#399de5"] ;
149 -> 150 ;
151 [label="gini = 0.0\nsamples = 0.0%\nvalue = [1.0, 0.0]\nclass = bot", fillcolor="#e58139"] ;
149 -> 151 ;
152 [label="gini = 0.0\nsamples = 0.1%\nvalue = [0.0, 1.0]\nclass = genuine", fillcolor="#399de5"] ;
148 -> 152 ;
153 [label="gini = 0.0\nsamples = 1.3%\nvalue = [0.0, 1.0]\nclass = genuine", fillcolor="#399de5"] ;
147 -> 153 ;
154 [label="gini = 0.0\nsamples = 1.2%\nvalue = [0.0, 1.0]\nclass = genuine", fillcolor="#399de5"] ;
146 -> 154 ;
155 [label="gini = 0.0\nsamples = 0.0%\nvalue = [1.0, 0.0]\nclass = bot", fillcolor="#e58139"] ;
141 -> 155 ;
156 [label="favourites_count <= 49.5\ngini = 0.06\nsamples = 33.7%\nvalue = [0.97, 0.03]\nclass = bot", fillcolor="#e6853f"] ;
0 -> 156 [labeldistance=2.5, labelangle=-45, headlabel="False"] ;
157 [label="statuses_count <= 9169.0\ngini = 0.32\nsamples = 2.4%\nvalue = [0.8, 0.2]\nclass = bot", fillcolor="#eca06a"] ;
156 -> 157 ;
158 [label="default_profile <= 0.5\ngini = 0.15\nsamples = 1.8%\nvalue = [0.92, 0.08]\nclass = bot", fillcolor="#e78c4a"] ;
157 -> 158 ;
159 [label="favourites_count <= 22.5\ngini = 0.17\nsamples = 1.1%\nvalue = [0.91, 0.09]\nclass = bot", fillcolor="#e88e4d"] ;
158 -> 159 ;
160 [label="friends_count <= 110.0\ngini = 0.34\nsamples = 0.2%\nvalue = [0.79, 0.21]\nclass = bot", fillcolor="#eca36f"] ;
159 -> 160 ;
161 [label="followers_count <= 22.5\ngini = 0.5\nsamples = 0.1%\nvalue = [0.5, 0.5]\nclass = bot", fillcolor="#ffffff"] ;
160 -> 161 ;
162 [label="gini = 0.0\nsamples = 0.0%\nvalue = [1.0, 0.0]\nclass = bot", fillcolor="#e58139"] ;
161 -> 162 ;
163 [label="gini = 0.0\nsamples = 0.1%\nvalue = [0.0, 1.0]\nclass = genuine", fillcolor="#399de5"] ;
161 -> 163 ;
164 [label="gini = 0.0\nsamples = 0.1%\nvalue = [1.0, 0.0]\nclass = bot", fillcolor="#e58139"] ;
160 -> 164 ;
165 [label="favourites_count <= 37.0\ngini = 0.12\nsamples = 0.9%\nvalue = [0.94, 0.06]\nclass = bot", fillcolor="#e78a46"] ;
159 -> 165 ;
166 [label="gini = 0.0\nsamples = 0.5%\nvalue = [1.0, 0.0]\nclass = bot", fillcolor="#e58139"] ;
165 -> 166 ;
167 [label="geo_enabled <= 0.5\ngini = 0.22\nsamples = 0.4%\nvalue = [0.88, 0.12]\nclass = bot", fillcolor="#e99355"] ;
165 -> 167 ;
168 [label="favourites_count <= 42.5\ngini = 0.39\nsamples = 0.2%\nvalue = [0.73, 0.27]\nclass = bot", fillcolor="#eeaf81"] ;
167 -> 168 ;
169 [label="friends_count <= 286.0\ngini = 0.46\nsamples = 0.1%\nvalue = [0.64, 0.36]\nclass = bot", fillcolor="#f4c9aa"] ;
168 -> 169 ;
170 [label="favourites_count <= 41.5\ngini = 0.22\nsamples = 0.1%\nvalue = [0.88, 0.12]\nclass = bot", fillcolor="#e99355"] ;
169 -> 170 ;
171 [label="gini = 0.0\nsamples = 0.1%\nvalue = [1.0, 0.0]\nclass = bot", fillcolor="#e58139"] ;
170 -> 171 ;
172 [label="gini = 0.0\nsamples = 0.0%\nvalue = [0.0, 1.0]\nclass = genuine", fillcolor="#399de5"] ;
170 -> 172 ;
173 [label="gini = 0.0\nsamples = 0.0%\nvalue = [0.0, 1.0]\nclass = genuine", fillcolor="#399de5"] ;
169 -> 173 ;
174 [label="gini = 0.0\nsamples = 0.1%\nvalue = [1.0, 0.0]\nclass = bot", fillcolor="#e58139"] ;
168 -> 174 ;
175 [label="gini = 0.0\nsamples = 0.2%\nvalue = [1.0, 0.0]\nclass = bot", fillcolor="#e58139"] ;
167 -> 175 ;
176 [label="followers_count <= 9.0\ngini = 0.11\nsamples = 0.7%\nvalue = [0.94, 0.06]\nclass = bot", fillcolor="#e78946"] ;
158 -> 176 ;
177 [label="statuses_count <= 1595.5\ngini = 0.38\nsamples = 0.1%\nvalue = [0.25, 0.75]\nclass = genuine", fillcolor="#7bbeee"] ;
176 -> 177 ;
178 [label="friends_count <= 25.0\ngini = 0.5\nsamples = 0.0%\nvalue = [0.5, 0.5]\nclass = bot", fillcolor="#ffffff"] ;
177 -> 178 ;
179 [label="gini = 0.0\nsamples = 0.0%\nvalue = [1.0, 0.0]\nclass = bot", fillcolor="#e58139"] ;
178 -> 179 ;
180 [label="gini = 0.0\nsamples = 0.0%\nvalue = [0.0, 1.0]\nclass = genuine", fillcolor="#399de5"] ;
178 -> 180 ;
181 [label="gini = 0.0\nsamples = 0.0%\nvalue = [0.0, 1.0]\nclass = genuine", fillcolor="#399de5"] ;
177 -> 181 ;
182 [label="gini = 0.0\nsamples = 0.6%\nvalue = [1.0, 0.0]\nclass = bot", fillcolor="#e58139"] ;
176 -> 182 ;
183 [label="profile_background_tile <= 0.5\ngini = 0.48\nsamples = 0.6%\nvalue = [0.39, 0.61]\nclass = genuine", fillcolor="#baddf6"] ;
157 -> 183 ;
184 [label="geo_enabled <= 0.5\ngini = 0.5\nsamples = 0.4%\nvalue = [0.5, 0.5]\nclass = bot", fillcolor="#ffffff"] ;
183 -> 184 ;
185 [label="default_profile <= 0.5\ngini = 0.43\nsamples = 0.2%\nvalue = [0.31, 0.69]\nclass = genuine", fillcolor="#93caf1"] ;
184 -> 185 ;
186 [label="friends_count <= 432.5\ngini = 0.36\nsamples = 0.2%\nvalue = [0.23, 0.77]\nclass = genuine", fillcolor="#74baed"] ;
185 -> 186 ;
187 [label="favourites_count <= 32.0\ngini = 0.17\nsamples = 0.2%\nvalue = [0.09, 0.91]\nclass = genuine", fillcolor="#4da7e8"] ;
186 -> 187 ;
188 [label="gini = 0.0\nsamples = 0.1%\nvalue = [0.0, 1.0]\nclass = genuine", fillcolor="#399de5"] ;
187 -> 188 ;
189 [label="statuses_count <= 18747.0\ngini = 0.44\nsamples = 0.0%\nvalue = [0.33, 0.67]\nclass = genuine", fillcolor="#9ccef2"] ;
187 -> 189 ;
190 [label="gini = 0.0\nsamples = 0.0%\nvalue = [0.0, 1.0]\nclass = genuine", fillcolor="#399de5"] ;
189 -> 190 ;
191 [label="gini = 0.0\nsamples = 0.0%\nvalue = [1.0, 0.0]\nclass = bot", fillcolor="#e58139"] ;
189 -> 191 ;
192 [label="gini = 0.0\nsamples = 0.0%\nvalue = [1.0, 0.0]\nclass = bot", fillcolor="#e58139"] ;
186 -> 192 ;
193 [label="statuses_count <= 29299.0\ngini = 0.44\nsamples = 0.0%\nvalue = [0.67, 0.33]\nclass = bot", fillcolor="#f2c09c"] ;
185 -> 193 ;
194 [label="gini = 0.0\nsamples = 0.0%\nvalue = [0.0, 1.0]\nclass = genuine", fillcolor="#399de5"] ;
193 -> 194 ;
195 [label="gini = 0.0\nsamples = 0.0%\nvalue = [1.0, 0.0]\nclass = bot", fillcolor="#e58139"] ;
193 -> 195 ;
196 [label="gini = 0.0\nsamples = 0.1%\nvalue = [1.0, 0.0]\nclass = bot", fillcolor="#e58139"] ;
184 -> 196 ;
197 [label="geo_enabled <= 0.5\ngini = 0.38\nsamples = 0.2%\nvalue = [0.25, 0.75]\nclass = genuine", fillcolor="#7bbeee"] ;
183 -> 197 ;
198 [label="followers_count <= 549.5\ngini = 0.14\nsamples = 0.1%\nvalue = [0.08, 0.92]\nclass = genuine", fillcolor="#49a5e7"] ;
197 -> 198 ;
199 [label="gini = 0.0\nsamples = 0.1%\nvalue = [0.0, 1.0]\nclass = genuine", fillcolor="#399de5"] ;
198 -> 199 ;
200 [label="followers_count <= 1424.5\ngini = 0.44\nsamples = 0.0%\nvalue = [0.33, 0.67]\nclass = genuine", fillcolor="#9ccef2"] ;
198 -> 200 ;
201 [label="gini = 0.0\nsamples = 0.0%\nvalue = [1.0, 0.0]\nclass = bot", fillcolor="#e58139"] ;
200 -> 201 ;
202 [label="gini = 0.0\nsamples = 0.0%\nvalue = [0.0, 1.0]\nclass = genuine", fillcolor="#399de5"] ;
200 -> 202 ;
203 [label="gini = 0.0\nsamples = 0.1%\nvalue = [1.0, 0.0]\nclass = bot", fillcolor="#e58139"] ;
197 -> 203 ;
204 [label="friends_count <= 37585.0\ngini = 0.03\nsamples = 31.4%\nvalue = [0.98, 0.02]\nclass = bot", fillcolor="#e5833c"] ;
156 -> 204 ;
205 [label="friends_count <= 5948.0\ngini = 0.03\nsamples = 31.3%\nvalue = [0.99, 0.01]\nclass = bot", fillcolor="#e5833c"] ;
204 -> 205 ;
206 [label="friends_count <= 933.0\ngini = 0.03\nsamples = 31.0%\nvalue = [0.99, 0.01]\nclass = bot", fillcolor="#e5833c"] ;
205 -> 206 ;
207 [label="listed_count <= 8.5\ngini = 0.02\nsamples = 26.1%\nvalue = [0.99, 0.01]\nclass = bot", fillcolor="#e5823b"] ;
206 -> 207 ;
208 [label="followers_count <= 86.5\ngini = 0.01\nsamples = 21.5%\nvalue = [0.99, 0.01]\nclass = bot", fillcolor="#e5823a"] ;
207 -> 208 ;
209 [label="profile_background_tile <= 0.5\ngini = 0.03\nsamples = 3.6%\nvalue = [0.99, 0.01]\nclass = bot", fillcolor="#e5833c"] ;
208 -> 209 ;
210 [label="gini = 0.0\nsamples = 2.9%\nvalue = [1.0, 0.0]\nclass = bot", fillcolor="#e58139"] ;
209 -> 210 ;
211 [label="statuses_count <= 1987.5\ngini = 0.16\nsamples = 0.7%\nvalue = [0.91, 0.09]\nclass = bot", fillcolor="#e78d4c"] ;
209 -> 211 ;
212 [label="geo_enabled <= 0.5\ngini = 0.07\nsamples = 0.4%\nvalue = [0.96, 0.04]\nclass = bot", fillcolor="#e68640"] ;
211 -> 212 ;
213 [label="gini = 0.0\nsamples = 0.2%\nvalue = [1.0, 0.0]\nclass = bot", fillcolor="#e58139"] ;
212 -> 213 ;
214 [label="friends_count <= 308.0\ngini = 0.22\nsamples = 0.2%\nvalue = [0.88, 0.12]\nclass = bot", fillcolor="#e99355"] ;
212 -> 214 ;
215 [label="gini = 0.0\nsamples = 0.1%\nvalue = [1.0, 0.0]\nclass = bot", fillcolor="#e58139"] ;
214 -> 215 ;
216 [label="favourites_count <= 862.0\ngini = 0.5\nsamples = 0.0%\nvalue = [0.5, 0.5]\nclass = bot", fillcolor="#ffffff"] ;
214 -> 216 ;
217 [label="gini = 0.0\nsamples = 0.0%\nvalue = [0.0, 1.0]\nclass = genuine", fillcolor="#399de5"] ;
216 -> 217 ;
218 [label="gini = 0.0\nsamples = 0.0%\nvalue = [1.0, 0.0]\nclass = bot", fillcolor="#e58139"] ;
216 -> 218 ;
219 [label="favourites_count <= 763.5\ngini = 0.28\nsamples = 0.3%\nvalue = [0.83, 0.17]\nclass = bot", fillcolor="#ea9a61"] ;
211 -> 219 ;
220 [label="favourites_count <= 66.0\ngini = 0.12\nsamples = 0.2%\nvalue = [0.94, 0.06]\nclass = bot", fillcolor="#e78946"] ;
219 -> 220 ;
221 [label="gini = 0.0\nsamples = 0.0%\nvalue = [0.0, 1.0]\nclass = genuine", fillcolor="#399de5"] ;
220 -> 221 ;
222 [label="gini = 0.0\nsamples = 0.2%\nvalue = [1.0, 0.0]\nclass = bot", fillcolor="#e58139"] ;
220 -> 222 ;
223 [label="gini = 0.0\nsamples = 0.0%\nvalue = [0.0, 1.0]\nclass = genuine", fillcolor="#399de5"] ;
219 -> 223 ;
224 [label="favourites_count <= 656.5\ngini = 0.01\nsamples = 17.9%\nvalue = [0.99, 0.01]\nclass = bot", fillcolor="#e5823a"] ;
208 -> 224 ;
225 [label="friends_count <= 629.0\ngini = 0.04\nsamples = 4.6%\nvalue = [0.98, 0.02]\nclass = bot", fillcolor="#e5833d"] ;
224 -> 225 ;
226 [label="favourites_count <= 143.0\ngini = 0.02\nsamples = 4.2%\nvalue = [0.99, 0.01]\nclass = bot", fillcolor="#e5823b"] ;
225 -> 226 ;
227 [label="gini = 0.0\nsamples = 1.2%\nvalue = [1.0, 0.0]\nclass = bot", fillcolor="#e58139"] ;
226 -> 227 ;
228 [label="geo_enabled <= 0.5\ngini = 0.03\nsamples = 3.0%\nvalue = [0.99, 0.01]\nclass = bot", fillcolor="#e5833c"] ;
226 -> 228 ;
229 [label="followers_count <= 487.5\ngini = 0.08\nsamples = 1.0%\nvalue = [0.96, 0.04]\nclass = bot", fillcolor="#e68642"] ;
228 -> 229 ;
230 [label="default_profile <= 0.5\ngini = 0.06\nsamples = 1.0%\nvalue = [0.97, 0.03]\nclass = bot", fillcolor="#e6853f"] ;
229 -> 230 ;
231 [label="favourites_count <= 383.5\ngini = 0.09\nsamples = 0.6%\nvalue = [0.95, 0.05]\nclass = bot", fillcolor="#e68743"] ;
230 -> 231 ;
232 [label="statuses_count <= 15674.0\ngini = 0.17\nsamples = 0.3%\nvalue = [0.9, 0.1]\nclass = bot", fillcolor="#e88e4e"] ;
231 -> 232 ;
233 [label="favourites_count <= 363.5\ngini = 0.09\nsamples = 0.3%\nvalue = [0.95, 0.05]\nclass = bot", fillcolor="#e68843"] ;
232 -> 233 ;
234 [label="gini = 0.0\nsamples = 0.2%\nvalue = [1.0, 0.0]\nclass = bot", fillcolor="#e58139"] ;
233 -> 234 ;
235 [label="gini = 0.0\nsamples = 0.0%\nvalue = [0.0, 1.0]\nclass = genuine", fillcolor="#399de5"] ;
233 -> 235 ;
236 [label="gini = 0.0\nsamples = 0.0%\nvalue = [0.0, 1.0]\nclass = genuine", fillcolor="#399de5"] ;
232 -> 236 ;
237 [label="gini = 0.0\nsamples = 0.3%\nvalue = [1.0, 0.0]\nclass = bot", fillcolor="#e58139"] ;
231 -> 237 ;
238 [label="gini = 0.0\nsamples = 0.4%\nvalue = [1.0, 0.0]\nclass = bot", fillcolor="#e58139"] ;
230 -> 238 ;
239 [label="statuses_count <= 16579.0\ngini = 0.5\nsamples = 0.0%\nvalue = [0.5, 0.5]\nclass = bot", fillcolor="#ffffff"] ;
229 -> 239 ;
240 [label="gini = 0.0\nsamples = 0.0%\nvalue = [1.0, 0.0]\nclass = bot", fillcolor="#e58139"] ;
239 -> 240 ;
241 [label="gini = 0.0\nsamples = 0.0%\nvalue = [0.0, 1.0]\nclass = genuine", fillcolor="#399de5"] ;
239 -> 241 ;
242 [label="gini = 0.0\nsamples = 2.0%\nvalue = [1.0, 0.0]\nclass = bot", fillcolor="#e58139"] ;
228 -> 242 ;
243 [label="statuses_count <= 9317.5\ngini = 0.17\nsamples = 0.4%\nvalue = [0.91, 0.09]\nclass = bot", fillcolor="#e88e4d"] ;
225 -> 243 ;
244 [label="gini = 0.0\nsamples = 0.3%\nvalue = [1.0, 0.0]\nclass = bot", fillcolor="#e58139"] ;
243 -> 244 ;
245 [label="favourites_count <= 501.5\ngini = 0.44\nsamples = 0.1%\nvalue = [0.67, 0.33]\nclass = bot", fillcolor="#f2c09c"] ;
243 -> 245 ;
246 [label="gini = 0.0\nsamples = 0.1%\nvalue = [1.0, 0.0]\nclass = bot", fillcolor="#e58139"] ;
245 -> 246 ;
247 [label="gini = 0.0\nsamples = 0.0%\nvalue = [0.0, 1.0]\nclass = genuine", fillcolor="#399de5"] ;
245 -> 247 ;
248 [label="friends_count <= 76.5\ngini = 0.0\nsamples = 13.3%\nvalue = [1.0, 0.0]\nclass = bot", fillcolor="#e58139"] ;
224 -> 248 ;
249 [label="favourites_count <= 8326.5\ngini = 0.09\nsamples = 0.3%\nvalue = [0.95, 0.05]\nclass = bot", fillcolor="#e68742"] ;
248 -> 249 ;
250 [label="gini = 0.0\nsamples = 0.3%\nvalue = [1.0, 0.0]\nclass = bot", fillcolor="#e58139"] ;
249 -> 250 ;
251 [label="favourites_count <= 11465.5\ngini = 0.5\nsamples = 0.0%\nvalue = [0.5, 0.5]\nclass = bot", fillcolor="#ffffff"] ;
249 -> 251 ;
252 [label="gini = 0.0\nsamples = 0.0%\nvalue = [0.0, 1.0]\nclass = genuine", fillcolor="#399de5"] ;
251 -> 252 ;
253 [label="gini = 0.0\nsamples = 0.0%\nvalue = [1.0, 0.0]\nclass = bot", fillcolor="#e58139"] ;
251 -> 253 ;
254 [label="gini = 0.0\nsamples = 13.0%\nvalue = [1.0, 0.0]\nclass = bot", fillcolor="#e58139"] ;
248 -> 254 ;
255 [label="default_profile <= 0.5\ngini = 0.05\nsamples = 4.7%\nvalue = [0.97, 0.03]\nclass = bot", fillcolor="#e6853f"] ;
207 -> 255 ;
256 [label="followers_count <= 415.5\ngini = 0.04\nsamples = 3.9%\nvalue = [0.98, 0.02]\nclass = bot", fillcolor="#e6843d"] ;
255 -> 256 ;
257 [label="statuses_count <= 50706.5\ngini = 0.18\nsamples = 0.7%\nvalue = [0.9, 0.1]\nclass = bot", fillcolor="#e88f4f"] ;
256 -> 257 ;
258 [label="listed_count <= 16.5\ngini = 0.12\nsamples = 0.7%\nvalue = [0.94, 0.06]\nclass = bot", fillcolor="#e78946"] ;
257 -> 258 ;
259 [label="listed_count <= 9.5\ngini = 0.06\nsamples = 0.5%\nvalue = [0.97, 0.03]\nclass = bot", fillcolor="#e6853f"] ;
258 -> 259 ;
260 [label="followers_count <= 194.5\ngini = 0.22\nsamples = 0.1%\nvalue = [0.88, 0.12]\nclass = bot", fillcolor="#e99355"] ;
259 -> 260 ;
261 [label="gini = 0.0\nsamples = 0.0%\nvalue = [0.0, 1.0]\nclass = genuine", fillcolor="#399de5"] ;
260 -> 261 ;
262 [label="gini = 0.0\nsamples = 0.1%\nvalue = [1.0, 0.0]\nclass = bot", fillcolor="#e58139"] ;
260 -> 262 ;
263 [label="gini = 0.0\nsamples = 0.3%\nvalue = [1.0, 0.0]\nclass = bot", fillcolor="#e58139"] ;
259 -> 263 ;
264 [label="followers_count <= 394.0\ngini = 0.22\nsamples = 0.2%\nvalue = [0.88, 0.12]\nclass = bot", fillcolor="#e99355"] ;
258 -> 264 ;
265 [label="gini = 0.0\nsamples = 0.2%\nvalue = [1.0, 0.0]\nclass = bot", fillcolor="#e58139"] ;
264 -> 265 ;
266 [label="statuses_count <= 3937.0\ngini = 0.44\nsamples = 0.0%\nvalue = [0.33, 0.67]\nclass = genuine", fillcolor="#9ccef2"] ;
264 -> 266 ;
267 [label="gini = 0.0\nsamples = 0.0%\nvalue = [1.0, 0.0]\nclass = bot", fillcolor="#e58139"] ;
266 -> 267 ;
268 [label="gini = 0.0\nsamples = 0.0%\nvalue = [0.0, 1.0]\nclass = genuine", fillcolor="#399de5"] ;
266 -> 268 ;
269 [label="gini = 0.0\nsamples = 0.0%\nvalue = [0.0, 1.0]\nclass = genuine", fillcolor="#399de5"] ;
257 -> 269 ;
270 [label="favourites_count <= 156.5\ngini = 0.01\nsamples = 3.2%\nvalue = [1.0, 0.0]\nclass = bot", fillcolor="#e5823a"] ;
256 -> 270 ;
271 [label="favourites_count <= 141.0\ngini = 0.18\nsamples = 0.2%\nvalue = [0.9, 0.1]\nclass = bot", fillcolor="#e88f4f"] ;
270 -> 271 ;
272 [label="gini = 0.0\nsamples = 0.2%\nvalue = [1.0, 0.0]\nclass = bot", fillcolor="#e58139"] ;
271 -> 272 ;
273 [label="gini = 0.0\nsamples = 0.0%\nvalue = [0.0, 1.0]\nclass = genuine", fillcolor="#399de5"] ;
271 -> 273 ;
274 [label="gini = 0.0\nsamples = 3.1%\nvalue = [1.0, 0.0]\nclass = bot", fillcolor="#e58139"] ;
270 -> 274 ;
275 [label="followers_count <= 115.5\ngini = 0.11\nsamples = 0.7%\nvalue = [0.94, 0.06]\nclass = bot", fillcolor="#e78945"] ;
255 -> 275 ;
276 [label="gini = 0.0\nsamples = 0.0%\nvalue = [0.0, 1.0]\nclass = genuine", fillcolor="#399de5"] ;
275 -> 276 ;
277 [label="followers_count <= 349.0\ngini = 0.08\nsamples = 0.7%\nvalue = [0.96, 0.04]\nclass = bot", fillcolor="#e68641"] ;
275 -> 277 ;
278 [label="followers_count <= 300.0\ngini = 0.35\nsamples = 0.1%\nvalue = [0.78, 0.22]\nclass = bot", fillcolor="#eca572"] ;
277 -> 278 ;
279 [label="gini = 0.0\nsamples = 0.1%\nvalue = [1.0, 0.0]\nclass = bot", fillcolor="#e58139"] ;
278 -> 279 ;
280 [label="gini = 0.0\nsamples = 0.0%\nvalue = [0.0, 1.0]\nclass = genuine", fillcolor="#399de5"] ;
278 -> 280 ;
281 [label="gini = 0.0\nsamples = 0.6%\nvalue = [1.0, 0.0]\nclass = bot", fillcolor="#e58139"] ;
277 -> 281 ;
282 [label="statuses_count <= 20070.5\ngini = 0.05\nsamples = 4.9%\nvalue = [0.97, 0.03]\nclass = bot", fillcolor="#e6853f"] ;
206 -> 282 ;
283 [label="favourites_count <= 12542.5\ngini = 0.09\nsamples = 2.7%\nvalue = [0.95, 0.05]\nclass = bot", fillcolor="#e68742"] ;
282 -> 283 ;
284 [label="friends_count <= 1002.5\ngini = 0.06\nsamples = 2.5%\nvalue = [0.97, 0.03]\nclass = bot", fillcolor="#e6853f"] ;
283 -> 284 ;
285 [label="profile_background_tile <= 0.5\ngini = 0.18\nsamples = 0.3%\nvalue = [0.9, 0.1]\nclass = bot", fillcolor="#e88f4f"] ;
284 -> 285 ;
286 [label="gini = 0.0\nsamples = 0.2%\nvalue = [1.0, 0.0]\nclass = bot", fillcolor="#e58139"] ;
285 -> 286 ;
287 [label="friends_count <= 995.0\ngini = 0.41\nsamples = 0.1%\nvalue = [0.71, 0.29]\nclass = bot", fillcolor="#efb388"] ;
285 -> 287 ;
288 [label="gini = 0.0\nsamples = 0.1%\nvalue = [1.0, 0.0]\nclass = bot", fillcolor="#e58139"] ;
287 -> 288 ;
289 [label="gini = 0.0\nsamples = 0.0%\nvalue = [0.0, 1.0]\nclass = genuine", fillcolor="#399de5"] ;
287 -> 289 ;
290 [label="followers_count <= 179.0\ngini = 0.04\nsamples = 2.2%\nvalue = [0.98, 0.02]\nclass = bot", fillcolor="#e6843d"] ;
284 -> 290 ;
291 [label="statuses_count <= 2352.5\ngini = 0.38\nsamples = 0.1%\nvalue = [0.75, 0.25]\nclass = bot", fillcolor="#eeab7b"] ;
290 -> 291 ;
292 [label="gini = 0.0\nsamples = 0.0%\nvalue = [1.0, 0.0]\nclass = bot", fillcolor="#e58139"] ;
291 -> 292 ;
293 [label="gini = 0.0\nsamples = 0.0%\nvalue = [0.0, 1.0]\nclass = genuine", fillcolor="#399de5"] ;
291 -> 293 ;
294 [label="friends_count <= 1851.5\ngini = 0.03\nsamples = 2.1%\nvalue = [0.99, 0.01]\nclass = bot", fillcolor="#e5833c"] ;
290 -> 294 ;
295 [label="gini = 0.0\nsamples = 1.3%\nvalue = [1.0, 0.0]\nclass = bot", fillcolor="#e58139"] ;
294 -> 295 ;
296 [label="favourites_count <= 61.5\ngini = 0.08\nsamples = 0.8%\nvalue = [0.96, 0.04]\nclass = bot", fillcolor="#e68641"] ;
294 -> 296 ;
297 [label="gini = 0.0\nsamples = 0.0%\nvalue = [0.0, 1.0]\nclass = genuine", fillcolor="#399de5"] ;
296 -> 297 ;
298 [label="friends_count <= 1898.0\ngini = 0.04\nsamples = 0.8%\nvalue = [0.98, 0.02]\nclass = bot", fillcolor="#e6843d"] ;
296 -> 298 ;
299 [label="gini = 0.0\nsamples = 0.0%\nvalue = [0.0, 1.0]\nclass = genuine", fillcolor="#399de5"] ;
298 -> 299 ;
300 [label="gini = 0.0\nsamples = 0.8%\nvalue = [1.0, 0.0]\nclass = bot", fillcolor="#e58139"] ;
298 -> 300 ;
301 [label="statuses_count <= 19810.5\ngini = 0.36\nsamples = 0.2%\nvalue = [0.77, 0.23]\nclass = bot", fillcolor="#eda774"] ;
283 -> 301 ;
302 [label="gini = 0.0\nsamples = 0.2%\nvalue = [1.0, 0.0]\nclass = bot", fillcolor="#e58139"] ;
301 -> 302 ;
303 [label="gini = 0.0\nsamples = 0.0%\nvalue = [0.0, 1.0]\nclass = genuine", fillcolor="#399de5"] ;
301 -> 303 ;
304 [label="friends_count <= 940.0\ngini = 0.01\nsamples = 2.2%\nvalue = [0.99, 0.01]\nclass = bot", fillcolor="#e5823a"] ;
282 -> 304 ;
305 [label="gini = 0.0\nsamples = 0.0%\nvalue = [0.0, 1.0]\nclass = genuine", fillcolor="#399de5"] ;
304 -> 305 ;
306 [label="gini = 0.0\nsamples = 2.1%\nvalue = [1.0, 0.0]\nclass = bot", fillcolor="#e58139"] ;
304 -> 306 ;
307 [label="friends_count <= 6496.0\ngini = 0.3\nsamples = 0.3%\nvalue = [0.82, 0.18]\nclass = bot", fillcolor="#eb9d65"] ;
205 -> 307 ;
308 [label="gini = 0.0\nsamples = 0.0%\nvalue = [0.0, 1.0]\nclass = genuine", fillcolor="#399de5"] ;
307 -> 308 ;
309 [label="favourites_count <= 2045.0\ngini = 0.24\nsamples = 0.3%\nvalue = [0.86, 0.14]\nclass = bot", fillcolor="#e9965a"] ;
307 -> 309 ;
310 [label="default_profile <= 0.5\ngini = 0.48\nsamples = 0.0%\nvalue = [0.6, 0.4]\nclass = bot", fillcolor="#f6d5bd"] ;
309 -> 310 ;
311 [label="gini = 0.0\nsamples = 0.0%\nvalue = [1.0, 0.0]\nclass = bot", fillcolor="#e58139"] ;
310 -> 311 ;
312 [label="gini = 0.0\nsamples = 0.0%\nvalue = [0.0, 1.0]\nclass = genuine", fillcolor="#399de5"] ;
310 -> 312 ;
313 [label="default_profile <= 0.5\ngini = 0.12\nsamples = 0.3%\nvalue = [0.94, 0.06]\nclass = bot", fillcolor="#e78946"] ;
309 -> 313 ;
314 [label="listed_count <= 94.5\ngini = 0.14\nsamples = 0.2%\nvalue = [0.92, 0.08]\nclass = bot", fillcolor="#e78c49"] ;
313 -> 314 ;
315 [label="profile_background_tile <= 0.5\ngini = 0.28\nsamples = 0.1%\nvalue = [0.83, 0.17]\nclass = bot", fillcolor="#ea9a61"] ;
314 -> 315 ;
316 [label="friends_count <= 13179.5\ngini = 0.44\nsamples = 0.1%\nvalue = [0.67, 0.33]\nclass = bot", fillcolor="#f2c09c"] ;
315 -> 316 ;
317 [label="gini = 0.0\nsamples = 0.0%\nvalue = [1.0, 0.0]\nclass = bot", fillcolor="#e58139"] ;
316 -> 317 ;
318 [label="statuses_count <= 81573.5\ngini = 0.5\nsamples = 0.0%\nvalue = [0.5, 0.5]\nclass = bot", fillcolor="#ffffff"] ;
316 -> 318 ;
319 [label="gini = 0.0\nsamples = 0.0%\nvalue = [0.0, 1.0]\nclass = genuine", fillcolor="#399de5"] ;
318 -> 319 ;
320 [label="gini = 0.0\nsamples = 0.0%\nvalue = [1.0, 0.0]\nclass = bot", fillcolor="#e58139"] ;
318 -> 320 ;
321 [label="gini = 0.0\nsamples = 0.1%\nvalue = [1.0, 0.0]\nclass = bot", fillcolor="#e58139"] ;
315 -> 321 ;
322 [label="gini = 0.0\nsamples = 0.1%\nvalue = [1.0, 0.0]\nclass = bot", fillcolor="#e58139"] ;
314 -> 322 ;
323 [label="gini = 0.0\nsamples = 0.0%\nvalue = [1.0, 0.0]\nclass = bot", fillcolor="#e58139"] ;
313 -> 323 ;
324 [label="gini = 0.0\nsamples = 0.0%\nvalue = [0.0, 1.0]\nclass = genuine", fillcolor="#399de5"] ;
204 -> 324 ;
}